digraph Tree {
node [shape=box, style="filled, rounded", color="black", fontname="helvetica"] ;
edge [fontname="helvetica"] ;
0 [label=<AirTemp &le; 7.25<br/>entropy = 0.821<br/>samples = 21043<br/>value = [5386, 15657]<br/>class = Low>, fillcolor="#7dbfee"] ;
1 [label=<l_b_spot &le; 1.979<br/>entropy = 1.0<br/>samples = 9792<br/>value = [4810, 4982]<br/>class = Low>, fillcolor="#f8fcfe"] ;
0 -> 1 [labeldistance=2.5, labelangle=45, headlabel="True"] ;
2 [label=<AirTemp &le; 4.25<br/>entropy = 0.918<br/>samples = 6072<br/>value = [2022, 4050]<br/>class = Low>, fillcolor="#9ccef2"] ;
1 -> 2 ;
3 [label=<AirTemp &le; -0.85<br/>entropy = 0.995<br/>samples = 2578<br/>value = [1181, 1397]<br/>class = Low>, fillcolor="#e0f0fb"] ;
2 -> 3 ;
4 [label=<AirTemp &le; -1.65<br/>entropy = 0.262<br/>samples = 158<br/>value = [151, 7]<br/>class = High>, fillcolor="#e68742"] ;
3 -> 4 ;
5 [label=<entropy = 0.0<br/>samples = 119<br/>value = [119, 0]<br/>class = High>, fillcolor="#e58139"] ;
4 -> 5 ;
6 [label=<l_b_spot &le; 1.929<br/>entropy = 0.679<br/>samples = 39<br/>value = [32, 7]<br/>class = High>, fillcolor="#eb9d64"] ;
4 -> 6 ;
7 [label=<AirTemp &le; -1.45<br/>entropy = 0.934<br/>samples = 20<br/>value = [13, 7]<br/>class = High>, fillcolor="#f3c5a4"] ;
6 -> 7 ;
8 [label=<l_b_spot &le; 1.863<br/>entropy = 0.722<br/>samples = 5<br/>value = [1, 4]<br/>class = Low>, fillcolor="#6ab6ec"] ;
7 -> 8 ;
9 [label=<entropy = 0.0<br/>samples = 4<br/>value = [0, 4]<br/>class = Low>, fillcolor="#399de5"] ;
8 -> 9 ;
10 [label=<entropy = 0.0<br/>samples = 1<br/>value = [1, 0]<br/>class = High>, fillcolor="#e58139"] ;
8 -> 10 ;
11 [label=<l_b_spot &le; 1.909<br/>entropy = 0.722<br/>samples = 15<br/>value = [12, 3]<br/>class = High>, fillcolor="#eca06a"] ;
7 -> 11 ;
12 [label=<entropy = 0.0<br/>samples = 9<br/>value = [9, 0]<br/>class = High>, fillcolor="#e58139"] ;
11 -> 12 ;
13 [label=<l_b_spot &le; 1.916<br/>entropy = 1.0<br/>samples = 6<br/>value = [3, 3]<br/>class = High>, fillcolor="#ffffff"] ;
11 -> 13 ;
14 [label=<entropy = 0.0<br/>samples = 2<br/>value = [0, 2]<br/>class = Low>, fillcolor="#399de5"] ;
13 -> 14 ;
15 [label=<l_b_spot &le; 1.924<br/>entropy = 0.811<br/>samples = 4<br/>value = [3, 1]<br/>class = High>, fillcolor="#eeab7b"] ;
13 -> 15 ;
16 [label=<entropy = 0.0<br/>samples = 3<br/>value = [3, 0]<br/>class = High>, fillcolor="#e58139"] ;
15 -> 16 ;
17 [label=<entropy = 0.0<br/>samples = 1<br/>value = [0, 1]<br/>class = Low>, fillcolor="#399de5"] ;
15 -> 17 ;
18 [label=<entropy = 0.0<br/>samples = 19<br/>value = [19, 0]<br/>class = High>, fillcolor="#e58139"] ;
6 -> 18 ;
19 [label=<l_b_spot &le; 1.886<br/>entropy = 0.984<br/>samples = 2420<br/>value = [1030, 1390]<br/>class = Low>, fillcolor="#cce6f8"] ;
3 -> 19 ;
20 [label=<AirTemp &le; 1.35<br/>entropy = 0.951<br/>samples = 1521<br/>value = [564, 957]<br/>class = Low>, fillcolor="#aed7f4"] ;
19 -> 20 ;
21 [label=<l_b_spot &le; 1.775<br/>entropy = 1.0<br/>samples = 226<br/>value = [111, 115]<br/>class = Low>, fillcolor="#f8fcfe"] ;
20 -> 21 ;
22 [label=<AirTemp &le; 0.25<br/>entropy = 0.853<br/>samples = 97<br/>value = [27, 70]<br/>class = Low>, fillcolor="#85c3ef"] ;
21 -> 22 ;
23 [label=<entropy = 0.0<br/>samples = 29<br/>value = [0, 29]<br/>class = Low>, fillcolor="#399de5"] ;
22 -> 23 ;
24 [label=<l_b_spot &le; 1.697<br/>entropy = 0.969<br/>samples = 68<br/>value = [27, 41]<br/>class = Low>, fillcolor="#bbdef6"] ;
22 -> 24 ;
25 [label=<l_b_spot &le; 1.675<br/>entropy = 0.964<br/>samples = 36<br/>value = [22, 14]<br/>class = High>, fillcolor="#f6d1b7"] ;
24 -> 25 ;
26 [label=<entropy = 0.993<br/>samples = 31<br/>value = [17, 14]<br/>class = High>, fillcolor="#fae9dc"] ;
25 -> 26 ;
27 [label=<entropy = 0.0<br/>samples = 5<br/>value = [5, 0]<br/>class = High>, fillcolor="#e58139"] ;
25 -> 27 ;
28 [label=<l_b_spot &le; 1.738<br/>entropy = 0.625<br/>samples = 32<br/>value = [5, 27]<br/>class = Low>, fillcolor="#5eafea"] ;
24 -> 28 ;
29 [label=<entropy = 0.0<br/>samples = 17<br/>value = [0, 17]<br/>class = Low>, fillcolor="#399de5"] ;
28 -> 29 ;
30 [label=<entropy = 0.918<br/>samples = 15<br/>value = [5, 10]<br/>class = Low>, fillcolor="#9ccef2"] ;
28 -> 30 ;
31 [label=<l_b_spot &le; 1.785<br/>entropy = 0.933<br/>samples = 129<br/>value = [84, 45]<br/>class = High>, fillcolor="#f3c4a3"] ;
21 -> 31 ;
32 [label=<entropy = 0.0<br/>samples = 9<br/>value = [9, 0]<br/>class = High>, fillcolor="#e58139"] ;
31 -> 32 ;
33 [label=<l_b_spot &le; 1.799<br/>entropy = 0.954<br/>samples = 120<br/>value = [75, 45]<br/>class = High>, fillcolor="#f5cdb0"] ;
31 -> 33 ;
34 [label=<l_b_spot &le; 1.789<br/>entropy = 0.837<br/>samples = 15<br/>value = [4, 11]<br/>class = Low>, fillcolor="#81c1ee"] ;
33 -> 34 ;
35 [label=<entropy = 0.971<br/>samples = 5<br/>value = [3, 2]<br/>class = High>, fillcolor="#f6d5bd"] ;
34 -> 35 ;
36 [label=<entropy = 0.469<br/>samples = 10<br/>value = [1, 9]<br/>class = Low>, fillcolor="#4fa8e8"] ;
34 -> 36 ;
37 [label=<l_b_spot &le; 1.834<br/>entropy = 0.908<br/>samples = 105<br/>value = [71, 34]<br/>class = High>, fillcolor="#f1bd98"] ;
33 -> 37 ;
38 [label=<entropy = 0.562<br/>samples = 38<br/>value = [33, 5]<br/>class = High>, fillcolor="#e99457"] ;
37 -> 38 ;
39 [label=<entropy = 0.987<br/>samples = 67<br/>value = [38, 29]<br/>class = High>, fillcolor="#f9e1d0"] ;
37 -> 39 ;
40 [label=<l_b_spot &le; 1.724<br/>entropy = 0.934<br/>samples = 1295<br/>value = [453, 842]<br/>class = Low>, fillcolor="#a4d2f3"] ;
20 -> 40 ;
41 [label=<l_b_spot &le; 1.679<br/>entropy = 0.987<br/>samples = 468<br/>value = [203, 265]<br/>class = Low>, fillcolor="#d1e8f9"] ;
40 -> 41 ;
42 [label=<AirTemp &le; 2.25<br/>entropy = 0.932<br/>samples = 293<br/>value = [102, 191]<br/>class = Low>, fillcolor="#a3d1f3"] ;
41 -> 42 ;
43 [label=<l_b_spot &le; 1.511<br/>entropy = 0.928<br/>samples = 32<br/>value = [21, 11]<br/>class = High>, fillcolor="#f3c3a1"] ;
42 -> 43 ;
44 [label=<entropy = 0.0<br/>samples = 3<br/>value = [0, 3]<br/>class = Low>, fillcolor="#399de5"] ;
43 -> 44 ;
45 [label=<entropy = 0.85<br/>samples = 29<br/>value = [21, 8]<br/>class = High>, fillcolor="#efb184"] ;
43 -> 45 ;
46 [label=<l_b_spot &le; 1.609<br/>entropy = 0.894<br/>samples = 261<br/>value = [81, 180]<br/>class = Low>, fillcolor="#92c9f1"] ;
42 -> 46 ;
47 [label=<entropy = 0.973<br/>samples = 99<br/>value = [40, 59]<br/>class = Low>, fillcolor="#bfdff7"] ;
46 -> 47 ;
48 [label=<entropy = 0.816<br/>samples = 162<br/>value = [41, 121]<br/>class = Low>, fillcolor="#7cbeee"] ;
46 -> 48 ;
49 [label=<AirTemp &le; 3.45<br/>entropy = 0.983<br/>samples = 175<br/>value = [101, 74]<br/>class = High>, fillcolor="#f8ddca"] ;
41 -> 49 ;
50 [label=<l_b_spot &le; 1.704<br/>entropy = 0.996<br/>samples = 106<br/>value = [49, 57]<br/>class = Low>, fillcolor="#e3f1fb"] ;
49 -> 50 ;
51 [label=<entropy = 0.995<br/>samples = 63<br/>value = [34, 29]<br/>class = High>, fillcolor="#fbece2"] ;
50 -> 51 ;
52 [label=<entropy = 0.933<br/>samples = 43<br/>value = [15, 28]<br/>class = Low>, fillcolor="#a3d2f3"] ;
50 -> 52 ;
53 [label=<l_b_spot &le; 1.711<br/>entropy = 0.805<br/>samples = 69<br/>value = [52, 17]<br/>class = High>, fillcolor="#eeaa7a"] ;
49 -> 53 ;
54 [label=<entropy = 0.835<br/>samples = 64<br/>value = [47, 17]<br/>class = High>, fillcolor="#eeaf81"] ;
53 -> 54 ;
55 [label=<entropy = 0.0<br/>samples = 5<br/>value = [5, 0]<br/>class = High>, fillcolor="#e58139"] ;
53 -> 55 ;
56 [label=<l_b_spot &le; 1.776<br/>entropy = 0.884<br/>samples = 827<br/>value = [250, 577]<br/>class = Low>, fillcolor="#8fc7f0"] ;
40 -> 56 ;
57 [label=<AirTemp &le; 2.05<br/>entropy = 0.662<br/>samples = 215<br/>value = [37, 178]<br/>class = Low>, fillcolor="#62b1ea"] ;
56 -> 57 ;
58 [label=<entropy = 0.0<br/>samples = 36<br/>value = [0, 36]<br/>class = Low>, fillcolor="#399de5"] ;
57 -> 58 ;
59 [label=<l_b_spot &le; 1.742<br/>entropy = 0.735<br/>samples = 179<br/>value = [37, 142]<br/>class = Low>, fillcolor="#6db7ec"] ;
57 -> 59 ;
60 [label=<entropy = 0.912<br/>samples = 52<br/>value = [17, 35]<br/>class = Low>, fillcolor="#99cdf2"] ;
59 -> 60 ;
61 [label=<entropy = 0.628<br/>samples = 127<br/>value = [20, 107]<br/>class = Low>, fillcolor="#5eafea"] ;
59 -> 61 ;
62 [label=<AirTemp &le; 3.25<br/>entropy = 0.932<br/>samples = 612<br/>value = [213, 399]<br/>class = Low>, fillcolor="#a3d1f3"] ;
56 -> 62 ;
63 [label=<l_b_spot &le; 1.875<br/>entropy = 0.974<br/>samples = 316<br/>value = [128, 188]<br/>class = Low>, fillcolor="#c0e0f7"] ;
62 -> 63 ;
64 [label=<entropy = 0.991<br/>samples = 265<br/>value = [118, 147]<br/>class = Low>, fillcolor="#d8ecfa"] ;
63 -> 64 ;
65 [label=<entropy = 0.714<br/>samples = 51<br/>value = [10, 41]<br/>class = Low>, fillcolor="#69b5eb"] ;
63 -> 65 ;
66 [label=<l_b_spot &le; 1.777<br/>entropy = 0.865<br/>samples = 296<br/>value = [85, 211]<br/>class = Low>, fillcolor="#89c4ef"] ;
62 -> 66 ;
67 [label=<entropy = 0.0<br/>samples = 2<br/>value = [2, 0]<br/>class = High>, fillcolor="#e58139"] ;
66 -> 67 ;
68 [label=<entropy = 0.859<br/>samples = 294<br/>value = [83, 211]<br/>class = Low>, fillcolor="#87c4ef"] ;
66 -> 68 ;
69 [label=<AirTemp &le; 1.15<br/>entropy = 0.999<br/>samples = 899<br/>value = [466, 433]<br/>class = High>, fillcolor="#fdf6f1"] ;
19 -> 69 ;
70 [label=<l_b_spot &le; 1.977<br/>entropy = 0.953<br/>samples = 204<br/>value = [128, 76]<br/>class = High>, fillcolor="#f4ccaf"] ;
69 -> 70 ;
71 [label=<l_b_spot &le; 1.937<br/>entropy = 0.943<br/>samples = 200<br/>value = [128, 72]<br/>class = High>, fillcolor="#f4c8a8"] ;
70 -> 71 ;
72 [label=<l_b_spot &le; 1.934<br/>entropy = 0.874<br/>samples = 102<br/>value = [72, 30]<br/>class = High>, fillcolor="#f0b58b"] ;
71 -> 72 ;
73 [label=<l_b_spot &le; 1.888<br/>entropy = 0.903<br/>samples = 94<br/>value = [64, 30]<br/>class = High>, fillcolor="#f1bc96"] ;
72 -> 73 ;
74 [label=<entropy = 0.811<br/>samples = 4<br/>value = [1, 3]<br/>class = Low>, fillcolor="#7bbeee"] ;
73 -> 74 ;
75 [label=<entropy = 0.881<br/>samples = 90<br/>value = [63, 27]<br/>class = High>, fillcolor="#f0b78e"] ;
73 -> 75 ;
76 [label=<entropy = 0.0<br/>samples = 8<br/>value = [8, 0]<br/>class = High>, fillcolor="#e58139"] ;
72 -> 76 ;
77 [label=<AirTemp &le; 0.35<br/>entropy = 0.985<br/>samples = 98<br/>value = [56, 42]<br/>class = High>, fillcolor="#f8e0ce"] ;
71 -> 77 ;
78 [label=<l_b_spot &le; 1.944<br/>entropy = 0.993<br/>samples = 42<br/>value = [19, 23]<br/>class = Low>, fillcolor="#ddeefa"] ;
77 -> 78 ;
79 [label=<entropy = 0.0<br/>samples = 5<br/>value = [0, 5]<br/>class = Low>, fillcolor="#399de5"] ;
78 -> 79 ;
80 [label=<entropy = 0.999<br/>samples = 37<br/>value = [19, 18]<br/>class = High>, fillcolor="#fef8f5"] ;
78 -> 80 ;
81 [label=<AirTemp &le; 0.45<br/>entropy = 0.924<br/>samples = 56<br/>value = [37, 19]<br/>class = High>, fillcolor="#f2c29f"] ;
77 -> 81 ;
82 [label=<entropy = 0.0<br/>samples = 5<br/>value = [5, 0]<br/>class = High>, fillcolor="#e58139"] ;
81 -> 82 ;
83 [label=<entropy = 0.953<br/>samples = 51<br/>value = [32, 19]<br/>class = High>, fillcolor="#f4ccaf"] ;
81 -> 83 ;
84 [label=<entropy = 0.0<br/>samples = 4<br/>value = [0, 4]<br/>class = Low>, fillcolor="#399de5"] ;
70 -> 84 ;
85 [label=<l_b_spot &le; 1.952<br/>entropy = 0.999<br/>samples = 695<br/>value = [338, 357]<br/>class = Low>, fillcolor="#f4fafe"] ;
69 -> 85 ;
86 [label=<l_b_spot &le; 1.943<br/>entropy = 0.992<br/>samples = 499<br/>value = [224, 275]<br/>class = Low>, fillcolor="#daedfa"] ;
85 -> 86 ;
87 [label=<l_b_spot &le; 1.942<br/>entropy = 0.996<br/>samples = 446<br/>value = [207, 239]<br/>class = Low>, fillcolor="#e4f2fc"] ;
86 -> 87 ;
88 [label=<l_b_spot &le; 1.942<br/>entropy = 0.996<br/>samples = 444<br/>value = [205, 239]<br/>class = Low>, fillcolor="#e3f1fb"] ;
87 -> 88 ;
89 [label=<entropy = 0.996<br/>samples = 441<br/>value = [205, 236]<br/>class = Low>, fillcolor="#e5f2fc"] ;
88 -> 89 ;
90 [label=<entropy = 0.0<br/>samples = 3<br/>value = [0, 3]<br/>class = Low>, fillcolor="#399de5"] ;
88 -> 90 ;
91 [label=<entropy = 0.0<br/>samples = 2<br/>value = [2, 0]<br/>class = High>, fillcolor="#e58139"] ;
87 -> 91 ;
92 [label=<AirTemp &le; 3.85<br/>entropy = 0.905<br/>samples = 53<br/>value = [17, 36]<br/>class = Low>, fillcolor="#96cbf1"] ;
86 -> 92 ;
93 [label=<l_b_spot &le; 1.945<br/>entropy = 0.837<br/>samples = 45<br/>value = [12, 33]<br/>class = Low>, fillcolor="#81c1ee"] ;
92 -> 93 ;
94 [label=<entropy = 0.439<br/>samples = 11<br/>value = [1, 10]<br/>class = Low>, fillcolor="#4da7e8"] ;
93 -> 94 ;
95 [label=<entropy = 0.908<br/>samples = 34<br/>value = [11, 23]<br/>class = Low>, fillcolor="#98ccf1"] ;
93 -> 95 ;
96 [label=<l_b_spot &le; 1.95<br/>entropy = 0.954<br/>samples = 8<br/>value = [5, 3]<br/>class = High>, fillcolor="#f5cdb0"] ;
92 -> 96 ;
97 [label=<entropy = 0.863<br/>samples = 7<br/>value = [5, 2]<br/>class = High>, fillcolor="#efb388"] ;
96 -> 97 ;
98 [label=<entropy = 0.0<br/>samples = 1<br/>value = [0, 1]<br/>class = Low>, fillcolor="#399de5"] ;
96 -> 98 ;
99 [label=<l_b_spot &le; 1.952<br/>entropy = 0.981<br/>samples = 196<br/>value = [114, 82]<br/>class = High>, fillcolor="#f8dcc7"] ;
85 -> 99 ;
100 [label=<entropy = 0.0<br/>samples = 5<br/>value = [5, 0]<br/>class = High>, fillcolor="#e58139"] ;
99 -> 100 ;
101 [label=<AirTemp &le; 3.95<br/>entropy = 0.986<br/>samples = 191<br/>value = [109, 82]<br/>class = High>, fillcolor="#f9e0ce"] ;
99 -> 101 ;
102 [label=<l_b_spot &le; 1.962<br/>entropy = 0.975<br/>samples = 167<br/>value = [99, 68]<br/>class = High>, fillcolor="#f7d8c1"] ;
101 -> 102 ;
103 [label=<entropy = 0.924<br/>samples = 62<br/>value = [41, 21]<br/>class = High>, fillcolor="#f2c29e"] ;
102 -> 103 ;
104 [label=<entropy = 0.992<br/>samples = 105<br/>value = [58, 47]<br/>class = High>, fillcolor="#fae7d9"] ;
102 -> 104 ;
105 [label=<l_b_spot &le; 1.964<br/>entropy = 0.98<br/>samples = 24<br/>value = [10, 14]<br/>class = Low>, fillcolor="#c6e3f8"] ;
101 -> 105 ;
106 [label=<entropy = 0.811<br/>samples = 12<br/>value = [3, 9]<br/>class = Low>, fillcolor="#7bbeee"] ;
105 -> 106 ;
107 [label=<entropy = 0.98<br/>samples = 12<br/>value = [7, 5]<br/>class = High>, fillcolor="#f8dbc6"] ;
105 -> 107 ;
108 [label=<l_b_spot &le; 1.619<br/>entropy = 0.796<br/>samples = 3494<br/>value = [841, 2653]<br/>class = Low>, fillcolor="#78bced"] ;
2 -> 108 ;
109 [label=<l_b_spot &le; 1.592<br/>entropy = 0.487<br/>samples = 321<br/>value = [34, 287]<br/>class = Low>, fillcolor="#50a9e8"] ;
108 -> 109 ;
110 [label=<l_b_spot &le; 1.591<br/>entropy = 0.583<br/>samples = 208<br/>value = [29, 179]<br/>class = Low>, fillcolor="#59ade9"] ;
109 -> 110 ;
111 [label=<AirTemp &le; 6.35<br/>entropy = 0.56<br/>samples = 206<br/>value = [27, 179]<br/>class = Low>, fillcolor="#57ace9"] ;
110 -> 111 ;
112 [label=<l_b_spot &le; 1.551<br/>entropy = 0.691<br/>samples = 119<br/>value = [22, 97]<br/>class = Low>, fillcolor="#66b3eb"] ;
111 -> 112 ;
113 [label=<l_b_spot &le; 1.545<br/>entropy = 0.779<br/>samples = 78<br/>value = [18, 60]<br/>class = Low>, fillcolor="#74baed"] ;
112 -> 113 ;
114 [label=<AirTemp &le; 5.35<br/>entropy = 0.598<br/>samples = 55<br/>value = [8, 47]<br/>class = Low>, fillcolor="#5baee9"] ;
113 -> 114 ;
115 [label=<entropy = 0.776<br/>samples = 35<br/>value = [8, 27]<br/>class = Low>, fillcolor="#74baed"] ;
114 -> 115 ;
116 [label=<entropy = 0.0<br/>samples = 20<br/>value = [0, 20]<br/>class = Low>, fillcolor="#399de5"] ;
114 -> 116 ;
117 [label=<l_b_spot &le; 1.546<br/>entropy = 0.988<br/>samples = 23<br/>value = [10, 13]<br/>class = Low>, fillcolor="#d1e8f9"] ;
113 -> 117 ;
118 [label=<entropy = 0.0<br/>samples = 3<br/>value = [3, 0]<br/>class = High>, fillcolor="#e58139"] ;
117 -> 118 ;
119 [label=<entropy = 0.934<br/>samples = 20<br/>value = [7, 13]<br/>class = Low>, fillcolor="#a4d2f3"] ;
117 -> 119 ;
120 [label=<l_b_spot &le; 1.585<br/>entropy = 0.461<br/>samples = 41<br/>value = [4, 37]<br/>class = Low>, fillcolor="#4ea8e8"] ;
112 -> 120 ;
121 [label=<AirTemp &le; 5.35<br/>entropy = 0.303<br/>samples = 37<br/>value = [2, 35]<br/>class = Low>, fillcolor="#44a3e6"] ;
120 -> 121 ;
122 [label=<entropy = 0.485<br/>samples = 19<br/>value = [2, 17]<br/>class = Low>, fillcolor="#50a9e8"] ;
121 -> 122 ;
123 [label=<entropy = 0.0<br/>samples = 18<br/>value = [0, 18]<br/>class = Low>, fillcolor="#399de5"] ;
121 -> 123 ;
124 [label=<l_b_spot &le; 1.586<br/>entropy = 1.0<br/>samples = 4<br/>value = [2, 2]<br/>class = High>, fillcolor="#ffffff"] ;
120 -> 124 ;
125 [label=<entropy = 0.0<br/>samples = 1<br/>value = [1, 0]<br/>class = High>, fillcolor="#e58139"] ;
124 -> 125 ;
126 [label=<entropy = 0.918<br/>samples = 3<br/>value = [1, 2]<br/>class = Low>, fillcolor="#9ccef2"] ;
124 -> 126 ;
127 [label=<l_b_spot &le; 1.531<br/>entropy = 0.317<br/>samples = 87<br/>value = [5, 82]<br/>class = Low>, fillcolor="#45a3e7"] ;
111 -> 127 ;
128 [label=<entropy = 0.0<br/>samples = 37<br/>value = [0, 37]<br/>class = Low>, fillcolor="#399de5"] ;
127 -> 128 ;
129 [label=<l_b_spot &le; 1.533<br/>entropy = 0.469<br/>samples = 50<br/>value = [5, 45]<br/>class = Low>, fillcolor="#4fa8e8"] ;
127 -> 129 ;
130 [label=<entropy = 0.0<br/>samples = 1<br/>value = [1, 0]<br/>class = High>, fillcolor="#e58139"] ;
129 -> 130 ;
131 [label=<AirTemp &le; 6.55<br/>entropy = 0.408<br/>samples = 49<br/>value = [4, 45]<br/>class = Low>, fillcolor="#4ba6e7"] ;
129 -> 131 ;
132 [label=<entropy = 0.0<br/>samples = 13<br/>value = [0, 13]<br/>class = Low>, fillcolor="#399de5"] ;
131 -> 132 ;
133 [label=<entropy = 0.503<br/>samples = 36<br/>value = [4, 32]<br/>class = Low>, fillcolor="#52a9e8"] ;
131 -> 133 ;
134 [label=<entropy = 0.0<br/>samples = 2<br/>value = [2, 0]<br/>class = High>, fillcolor="#e58139"] ;
110 -> 134 ;
135 [label=<AirTemp &le; 4.35<br/>entropy = 0.261<br/>samples = 113<br/>value = [5, 108]<br/>class = Low>, fillcolor="#42a2e6"] ;
109 -> 135 ;
136 [label=<l_b_spot &le; 1.607<br/>entropy = 0.971<br/>samples = 5<br/>value = [2, 3]<br/>class = Low>, fillcolor="#bddef6"] ;
135 -> 136 ;
137 [label=<l_b_spot &le; 1.6<br/>entropy = 0.918<br/>samples = 3<br/>value = [2, 1]<br/>class = High>, fillcolor="#f2c09c"] ;
136 -> 137 ;
138 [label=<entropy = 0.0<br/>samples = 1<br/>value = [0, 1]<br/>class = Low>, fillcolor="#399de5"] ;
137 -> 138 ;
139 [label=<entropy = 0.0<br/>samples = 2<br/>value = [2, 0]<br/>class = High>, fillcolor="#e58139"] ;
137 -> 139 ;
140 [label=<entropy = 0.0<br/>samples = 2<br/>value = [0, 2]<br/>class = Low>, fillcolor="#399de5"] ;
136 -> 140 ;
141 [label=<AirTemp &le; 7.15<br/>entropy = 0.183<br/>samples = 108<br/>value = [3, 105]<br/>class = Low>, fillcolor="#3fa0e6"] ;
135 -> 141 ;
142 [label=<AirTemp &le; 5.55<br/>entropy = 0.134<br/>samples = 107<br/>value = [2, 105]<br/>class = Low>, fillcolor="#3d9fe5"] ;
141 -> 142 ;
143 [label=<AirTemp &le; 5.15<br/>entropy = 0.254<br/>samples = 47<br/>value = [2, 45]<br/>class = Low>, fillcolor="#42a1e6"] ;
142 -> 143 ;
144 [label=<entropy = 0.0<br/>samples = 27<br/>value = [0, 27]<br/>class = Low>, fillcolor="#399de5"] ;
143 -> 144 ;
145 [label=<l_b_spot &le; 1.614<br/>entropy = 0.469<br/>samples = 20<br/>value = [2, 18]<br/>class = Low>, fillcolor="#4fa8e8"] ;
143 -> 145 ;
146 [label=<entropy = 0.297<br/>samples = 19<br/>value = [1, 18]<br/>class = Low>, fillcolor="#44a2e6"] ;
145 -> 146 ;
147 [label=<entropy = 0.0<br/>samples = 1<br/>value = [1, 0]<br/>class = High>, fillcolor="#e58139"] ;
145 -> 147 ;
148 [label=<entropy = 0.0<br/>samples = 60<br/>value = [0, 60]<br/>class = Low>, fillcolor="#399de5"] ;
142 -> 148 ;
149 [label=<entropy = 0.0<br/>samples = 1<br/>value = [1, 0]<br/>class = High>, fillcolor="#e58139"] ;
141 -> 149 ;
150 [label=<l_b_spot &le; 1.721<br/>entropy = 0.818<br/>samples = 3173<br/>value = [807, 2366]<br/>class = Low>, fillcolor="#7dbeee"] ;
108 -> 150 ;
151 [label=<l_b_spot &le; 1.645<br/>entropy = 0.965<br/>samples = 578<br/>value = [226, 352]<br/>class = Low>, fillcolor="#b8dcf6"] ;
150 -> 151 ;
152 [label=<l_b_spot &le; 1.633<br/>entropy = 0.752<br/>samples = 130<br/>value = [28, 102]<br/>class = Low>, fillcolor="#6fb8ec"] ;
151 -> 152 ;
153 [label=<AirTemp &le; 6.35<br/>entropy = 0.924<br/>samples = 53<br/>value = [18, 35]<br/>class = Low>, fillcolor="#9fcff2"] ;
152 -> 153 ;
154 [label=<AirTemp &le; 4.45<br/>entropy = 0.984<br/>samples = 40<br/>value = [17, 23]<br/>class = Low>, fillcolor="#cbe5f8"] ;
153 -> 154 ;
155 [label=<entropy = 0.0<br/>samples = 6<br/>value = [0, 6]<br/>class = Low>, fillcolor="#399de5"] ;
154 -> 155 ;
156 [label=<AirTemp &le; 6.25<br/>entropy = 1.0<br/>samples = 34<br/>value = [17, 17]<br/>class = High>, fillcolor="#ffffff"] ;
154 -> 156 ;
157 [label=<entropy = 0.993<br/>samples = 31<br/>value = [14, 17]<br/>class = Low>, fillcolor="#dceefa"] ;
156 -> 157 ;
158 [label=<entropy = 0.0<br/>samples = 3<br/>value = [3, 0]<br/>class = High>, fillcolor="#e58139"] ;
156 -> 158 ;
159 [label=<l_b_spot &le; 1.623<br/>entropy = 0.391<br/>samples = 13<br/>value = [1, 12]<br/>class = Low>, fillcolor="#49a5e7"] ;
153 -> 159 ;
160 [label=<l_b_spot &le; 1.622<br/>entropy = 0.722<br/>samples = 5<br/>value = [1, 4]<br/>class = Low>, fillcolor="#6ab6ec"] ;
159 -> 160 ;
161 [label=<entropy = 0.0<br/>samples = 4<br/>value = [0, 4]<br/>class = Low>, fillcolor="#399de5"] ;
160 -> 161 ;
162 [label=<entropy = 0.0<br/>samples = 1<br/>value = [1, 0]<br/>class = High>, fillcolor="#e58139"] ;
160 -> 162 ;
163 [label=<entropy = 0.0<br/>samples = 8<br/>value = [0, 8]<br/>class = Low>, fillcolor="#399de5"] ;
159 -> 163 ;
164 [label=<l_b_spot &le; 1.635<br/>entropy = 0.557<br/>samples = 77<br/>value = [10, 67]<br/>class = Low>, fillcolor="#57ace9"] ;
152 -> 164 ;
165 [label=<entropy = 0.0<br/>samples = 14<br/>value = [0, 14]<br/>class = Low>, fillcolor="#399de5"] ;
164 -> 165 ;
166 [label=<l_b_spot &le; 1.635<br/>entropy = 0.631<br/>samples = 63<br/>value = [10, 53]<br/>class = Low>, fillcolor="#5eafea"] ;
164 -> 166 ;
167 [label=<entropy = 0.0<br/>samples = 1<br/>value = [1, 0]<br/>class = High>, fillcolor="#e58139"] ;
166 -> 167 ;
168 [label=<AirTemp &le; 6.75<br/>entropy = 0.598<br/>samples = 62<br/>value = [9, 53]<br/>class = Low>, fillcolor="#5baee9"] ;
166 -> 168 ;
169 [label=<entropy = 0.516<br/>samples = 52<br/>value = [6, 46]<br/>class = Low>, fillcolor="#53aae8"] ;
168 -> 169 ;
170 [label=<entropy = 0.881<br/>samples = 10<br/>value = [3, 7]<br/>class = Low>, fillcolor="#8ec7f0"] ;
168 -> 170 ;
171 [label=<AirTemp &le; 5.55<br/>entropy = 0.99<br/>samples = 448<br/>value = [198, 250]<br/>class = Low>, fillcolor="#d6ebfa"] ;
151 -> 171 ;
172 [label=<AirTemp &le; 5.45<br/>entropy = 0.954<br/>samples = 211<br/>value = [79, 132]<br/>class = Low>, fillcolor="#afd8f5"] ;
171 -> 172 ;
173 [label=<l_b_spot &le; 1.691<br/>entropy = 0.973<br/>samples = 196<br/>value = [79, 117]<br/>class = Low>, fillcolor="#bfdff7"] ;
172 -> 173 ;
174 [label=<l_b_spot &le; 1.648<br/>entropy = 0.896<br/>samples = 112<br/>value = [35, 77]<br/>class = Low>, fillcolor="#93caf1"] ;
173 -> 174 ;
175 [label=<entropy = 0.0<br/>samples = 4<br/>value = [0, 4]<br/>class = Low>, fillcolor="#399de5"] ;
174 -> 175 ;
176 [label=<entropy = 0.909<br/>samples = 108<br/>value = [35, 73]<br/>class = Low>, fillcolor="#98ccf1"] ;
174 -> 176 ;
177 [label=<l_b_spot &le; 1.706<br/>entropy = 0.998<br/>samples = 84<br/>value = [44, 40]<br/>class = High>, fillcolor="#fdf4ed"] ;
173 -> 177 ;
178 [label=<entropy = 0.904<br/>samples = 50<br/>value = [34, 16]<br/>class = High>, fillcolor="#f1bc96"] ;
177 -> 178 ;
179 [label=<entropy = 0.874<br/>samples = 34<br/>value = [10, 24]<br/>class = Low>, fillcolor="#8bc6f0"] ;
177 -> 179 ;
180 [label=<entropy = 0.0<br/>samples = 15<br/>value = [0, 15]<br/>class = Low>, fillcolor="#399de5"] ;
172 -> 180 ;
181 [label=<l_b_spot &le; 1.648<br/>entropy = 1.0<br/>samples = 237<br/>value = [119, 118]<br/>class = High>, fillcolor="#fffefd"] ;
171 -> 181 ;
182 [label=<AirTemp &le; 7.0<br/>entropy = 0.439<br/>samples = 11<br/>value = [10, 1]<br/>class = High>, fillcolor="#e88e4d"] ;
181 -> 182 ;
183 [label=<entropy = 0.0<br/>samples = 9<br/>value = [9, 0]<br/>class = High>, fillcolor="#e58139"] ;
182 -> 183 ;
184 [label=<l_b_spot &le; 1.647<br/>entropy = 1.0<br/>samples = 2<br/>value = [1, 1]<br/>class = High>, fillcolor="#ffffff"] ;
182 -> 184 ;
185 [label=<entropy = 0.0<br/>samples = 1<br/>value = [0, 1]<br/>class = Low>, fillcolor="#399de5"] ;
184 -> 185 ;
186 [label=<entropy = 0.0<br/>samples = 1<br/>value = [1, 0]<br/>class = High>, fillcolor="#e58139"] ;
184 -> 186 ;
187 [label=<l_b_spot &le; 1.682<br/>entropy = 0.999<br/>samples = 226<br/>value = [109, 117]<br/>class = Low>, fillcolor="#f1f8fd"] ;
181 -> 187 ;
188 [label=<AirTemp &le; 5.65<br/>entropy = 0.982<br/>samples = 145<br/>value = [61, 84]<br/>class = Low>, fillcolor="#c9e4f8"] ;
187 -> 188 ;
189 [label=<entropy = 0.764<br/>samples = 9<br/>value = [7, 2]<br/>class = High>, fillcolor="#eca572"] ;
188 -> 189 ;
190 [label=<entropy = 0.969<br/>samples = 136<br/>value = [54, 82]<br/>class = Low>, fillcolor="#bbdef6"] ;
188 -> 190 ;
191 [label=<l_b_spot &le; 1.688<br/>entropy = 0.975<br/>samples = 81<br/>value = [48, 33]<br/>class = High>, fillcolor="#f7d8c1"] ;
187 -> 191 ;
192 [label=<entropy = 0.702<br/>samples = 21<br/>value = [17, 4]<br/>class = High>, fillcolor="#eb9f68"] ;
191 -> 192 ;
193 [label=<entropy = 0.999<br/>samples = 60<br/>value = [31, 29]<br/>class = High>, fillcolor="#fdf7f2"] ;
191 -> 193 ;
194 [label=<AirTemp &le; 4.85<br/>entropy = 0.767<br/>samples = 2595<br/>value = [581, 2014]<br/>class = Low>, fillcolor="#72b9ed"] ;
150 -> 194 ;
195 [label=<l_b_spot &le; 1.961<br/>entropy = 0.886<br/>samples = 540<br/>value = [164, 376]<br/>class = Low>, fillcolor="#8fc8f0"] ;
194 -> 195 ;
196 [label=<l_b_spot &le; 1.946<br/>entropy = 0.862<br/>samples = 499<br/>value = [142, 357]<br/>class = Low>, fillcolor="#88c4ef"] ;
195 -> 196 ;
197 [label=<l_b_spot &le; 1.945<br/>entropy = 0.886<br/>samples = 454<br/>value = [138, 316]<br/>class = Low>, fillcolor="#8fc8f0"] ;
196 -> 197 ;
198 [label=<l_b_spot &le; 1.725<br/>entropy = 0.872<br/>samples = 444<br/>value = [130, 314]<br/>class = Low>, fillcolor="#8bc6f0"] ;
197 -> 198 ;
199 [label=<entropy = 0.0<br/>samples = 2<br/>value = [2, 0]<br/>class = High>, fillcolor="#e58139"] ;
198 -> 199 ;
200 [label=<entropy = 0.868<br/>samples = 442<br/>value = [128, 314]<br/>class = Low>, fillcolor="#8ac5f0"] ;
198 -> 200 ;
201 [label=<l_b_spot &le; 1.946<br/>entropy = 0.722<br/>samples = 10<br/>value = [8, 2]<br/>class = High>, fillcolor="#eca06a"] ;
197 -> 201 ;
202 [label=<entropy = 0.0<br/>samples = 6<br/>value = [6, 0]<br/>class = High>, fillcolor="#e58139"] ;
201 -> 202 ;
203 [label=<entropy = 1.0<br/>samples = 4<br/>value = [2, 2]<br/>class = High>, fillcolor="#ffffff"] ;
201 -> 203 ;
204 [label=<l_b_spot &le; 1.958<br/>entropy = 0.433<br/>samples = 45<br/>value = [4, 41]<br/>class = Low>, fillcolor="#4ca7e8"] ;
196 -> 204 ;
205 [label=<AirTemp &le; 4.75<br/>entropy = 0.191<br/>samples = 34<br/>value = [1, 33]<br/>class = Low>, fillcolor="#3fa0e6"] ;
204 -> 205 ;
206 [label=<entropy = 0.0<br/>samples = 25<br/>value = [0, 25]<br/>class = Low>, fillcolor="#399de5"] ;
205 -> 206 ;
207 [label=<entropy = 0.503<br/>samples = 9<br/>value = [1, 8]<br/>class = Low>, fillcolor="#52a9e8"] ;
205 -> 207 ;
208 [label=<l_b_spot &le; 1.959<br/>entropy = 0.845<br/>samples = 11<br/>value = [3, 8]<br/>class = Low>, fillcolor="#83c2ef"] ;
204 -> 208 ;
209 [label=<entropy = 0.811<br/>samples = 4<br/>value = [3, 1]<br/>class = High>, fillcolor="#eeab7b"] ;
208 -> 209 ;
210 [label=<entropy = 0.0<br/>samples = 7<br/>value = [0, 7]<br/>class = Low>, fillcolor="#399de5"] ;
208 -> 210 ;
211 [label=<l_b_spot &le; 1.963<br/>entropy = 0.996<br/>samples = 41<br/>value = [22, 19]<br/>class = High>, fillcolor="#fbeee4"] ;
195 -> 211 ;
212 [label=<entropy = 0.0<br/>samples = 6<br/>value = [6, 0]<br/>class = High>, fillcolor="#e58139"] ;
211 -> 212 ;
213 [label=<l_b_spot &le; 1.974<br/>entropy = 0.995<br/>samples = 35<br/>value = [16, 19]<br/>class = Low>, fillcolor="#e0f0fb"] ;
211 -> 213 ;
214 [label=<l_b_spot &le; 1.965<br/>entropy = 0.99<br/>samples = 25<br/>value = [14, 11]<br/>class = High>, fillcolor="#f9e4d5"] ;
213 -> 214 ;
215 [label=<entropy = 0.0<br/>samples = 3<br/>value = [0, 3]<br/>class = Low>, fillcolor="#399de5"] ;
214 -> 215 ;
216 [label=<entropy = 0.946<br/>samples = 22<br/>value = [14, 8]<br/>class = High>, fillcolor="#f4c9aa"] ;
214 -> 216 ;
217 [label=<AirTemp &le; 4.55<br/>entropy = 0.722<br/>samples = 10<br/>value = [2, 8]<br/>class = Low>, fillcolor="#6ab6ec"] ;
213 -> 217 ;
218 [label=<entropy = 0.0<br/>samples = 6<br/>value = [0, 6]<br/>class = Low>, fillcolor="#399de5"] ;
217 -> 218 ;
219 [label=<entropy = 1.0<br/>samples = 4<br/>value = [2, 2]<br/>class = High>, fillcolor="#ffffff"] ;
217 -> 219 ;
220 [label=<AirTemp &le; 6.75<br/>entropy = 0.728<br/>samples = 2055<br/>value = [417, 1638]<br/>class = Low>, fillcolor="#6bb6ec"] ;
194 -> 220 ;
221 [label=<l_b_spot &le; 1.744<br/>entropy = 0.75<br/>samples = 1699<br/>value = [364, 1335]<br/>class = Low>, fillcolor="#6fb8ec"] ;
220 -> 221 ;
222 [label=<l_b_spot &le; 1.74<br/>entropy = 0.469<br/>samples = 110<br/>value = [11, 99]<br/>class = Low>, fillcolor="#4fa8e8"] ;
221 -> 222 ;
223 [label=<l_b_spot &le; 1.739<br/>entropy = 0.521<br/>samples = 94<br/>value = [11, 83]<br/>class = Low>, fillcolor="#53aae8"] ;
222 -> 223 ;
224 [label=<entropy = 0.466<br/>samples = 91<br/>value = [9, 82]<br/>class = Low>, fillcolor="#4fa8e8"] ;
223 -> 224 ;
225 [label=<entropy = 0.918<br/>samples = 3<br/>value = [2, 1]<br/>class = High>, fillcolor="#f2c09c"] ;
223 -> 225 ;
226 [label=<entropy = 0.0<br/>samples = 16<br/>value = [0, 16]<br/>class = Low>, fillcolor="#399de5"] ;
222 -> 226 ;
227 [label=<l_b_spot &le; 1.751<br/>entropy = 0.764<br/>samples = 1589<br/>value = [353, 1236]<br/>class = Low>, fillcolor="#72b9ec"] ;
221 -> 227 ;
228 [label=<l_b_spot &le; 1.748<br/>entropy = 0.964<br/>samples = 36<br/>value = [14, 22]<br/>class = Low>, fillcolor="#b7dbf6"] ;
227 -> 228 ;
229 [label=<entropy = 0.773<br/>samples = 22<br/>value = [5, 17]<br/>class = Low>, fillcolor="#73baed"] ;
228 -> 229 ;
230 [label=<entropy = 0.94<br/>samples = 14<br/>value = [9, 5]<br/>class = High>, fillcolor="#f3c7a7"] ;
228 -> 230 ;
231 [label=<l_b_spot &le; 1.752<br/>entropy = 0.757<br/>samples = 1553<br/>value = [339, 1214]<br/>class = Low>, fillcolor="#70b8ec"] ;
227 -> 231 ;
232 [label=<entropy = 0.0<br/>samples = 7<br/>value = [0, 7]<br/>class = Low>, fillcolor="#399de5"] ;
231 -> 232 ;
233 [label=<entropy = 0.759<br/>samples = 1546<br/>value = [339, 1207]<br/>class = Low>, fillcolor="#71b9ec"] ;
231 -> 233 ;
234 [label=<l_b_spot &le; 1.93<br/>entropy = 0.607<br/>samples = 356<br/>value = [53, 303]<br/>class = Low>, fillcolor="#5caeea"] ;
220 -> 234 ;
235 [label=<l_b_spot &le; 1.879<br/>entropy = 0.55<br/>samples = 291<br/>value = [37, 254]<br/>class = Low>, fillcolor="#56abe9"] ;
234 -> 235 ;
236 [label=<l_b_spot &le; 1.816<br/>entropy = 0.658<br/>samples = 188<br/>value = [32, 156]<br/>class = Low>, fillcolor="#62b1ea"] ;
235 -> 236 ;
237 [label=<entropy = 0.516<br/>samples = 104<br/>value = [12, 92]<br/>class = Low>, fillcolor="#53aae8"] ;
236 -> 237 ;
238 [label=<entropy = 0.792<br/>samples = 84<br/>value = [20, 64]<br/>class = Low>, fillcolor="#77bced"] ;
236 -> 238 ;
239 [label=<l_b_spot &le; 1.902<br/>entropy = 0.28<br/>samples = 103<br/>value = [5, 98]<br/>class = Low>, fillcolor="#43a2e6"] ;
235 -> 239 ;
240 [label=<entropy = 0.0<br/>samples = 37<br/>value = [0, 37]<br/>class = Low>, fillcolor="#399de5"] ;
239 -> 240 ;
241 [label=<entropy = 0.387<br/>samples = 66<br/>value = [5, 61]<br/>class = Low>, fillcolor="#49a5e7"] ;
239 -> 241 ;
242 [label=<l_b_spot &le; 1.932<br/>entropy = 0.805<br/>samples = 65<br/>value = [16, 49]<br/>class = Low>, fillcolor="#7abded"] ;
234 -> 242 ;
243 [label=<l_b_spot &le; 1.931<br/>entropy = 0.985<br/>samples = 7<br/>value = [4, 3]<br/>class = High>, fillcolor="#f8e0ce"] ;
242 -> 243 ;
244 [label=<entropy = 0.811<br/>samples = 4<br/>value = [1, 3]<br/>class = Low>, fillcolor="#7bbeee"] ;
243 -> 244 ;
245 [label=<entropy = 0.0<br/>samples = 3<br/>value = [3, 0]<br/>class = High>, fillcolor="#e58139"] ;
243 -> 245 ;
246 [label=<l_b_spot &le; 1.951<br/>entropy = 0.736<br/>samples = 58<br/>value = [12, 46]<br/>class = Low>, fillcolor="#6db7ec"] ;
242 -> 246 ;
247 [label=<entropy = 0.426<br/>samples = 23<br/>value = [2, 21]<br/>class = Low>, fillcolor="#4ca6e7"] ;
246 -> 247 ;
248 [label=<entropy = 0.863<br/>samples = 35<br/>value = [10, 25]<br/>class = Low>, fillcolor="#88c4ef"] ;
246 -> 248 ;
249 [label=<AirTemp &le; 2.25<br/>entropy = 0.812<br/>samples = 3720<br/>value = [2788, 932]<br/>class = High>, fillcolor="#eeab7b"] ;
1 -> 249 ;
250 [label=<l_b_spot &le; 2.096<br/>entropy = 0.375<br/>samples = 1586<br/>value = [1471, 115]<br/>class = High>, fillcolor="#e78b48"] ;
249 -> 250 ;
251 [label=<AirTemp &le; -1.55<br/>entropy = 0.547<br/>samples = 817<br/>value = [714, 103]<br/>class = High>, fillcolor="#e99356"] ;
250 -> 251 ;
252 [label=<entropy = 0.0<br/>samples = 171<br/>value = [171, 0]<br/>class = High>, fillcolor="#e58139"] ;
251 -> 252 ;
253 [label=<AirTemp &le; 1.35<br/>entropy = 0.633<br/>samples = 646<br/>value = [543, 103]<br/>class = High>, fillcolor="#ea995f"] ;
251 -> 253 ;
254 [label=<l_b_spot &le; 2.045<br/>entropy = 0.529<br/>samples = 426<br/>value = [375, 51]<br/>class = High>, fillcolor="#e99254"] ;
253 -> 254 ;
255 [label=<l_b_spot &le; 2.044<br/>entropy = 0.609<br/>samples = 281<br/>value = [239, 42]<br/>class = High>, fillcolor="#ea975c"] ;
254 -> 255 ;
256 [label=<l_b_spot &le; 2.041<br/>entropy = 0.593<br/>samples = 279<br/>value = [239, 40]<br/>class = High>, fillcolor="#e9965a"] ;
255 -> 256 ;
257 [label=<l_b_spot &le; 2.041<br/>entropy = 0.605<br/>samples = 270<br/>value = [230, 40]<br/>class = High>, fillcolor="#ea975b"] ;
256 -> 257 ;
258 [label=<entropy = 0.597<br/>samples = 269<br/>value = [230, 39]<br/>class = High>, fillcolor="#e9965b"] ;
257 -> 258 ;
259 [label=<entropy = 0.0<br/>samples = 1<br/>value = [0, 1]<br/>class = Low>, fillcolor="#399de5"] ;
257 -> 259 ;
260 [label=<entropy = 0.0<br/>samples = 9<br/>value = [9, 0]<br/>class = High>, fillcolor="#e58139"] ;
256 -> 260 ;
261 [label=<entropy = 0.0<br/>samples = 2<br/>value = [0, 2]<br/>class = Low>, fillcolor="#399de5"] ;
255 -> 261 ;
262 [label=<AirTemp &le; 0.05<br/>entropy = 0.336<br/>samples = 145<br/>value = [136, 9]<br/>class = High>, fillcolor="#e78946"] ;
254 -> 262 ;
263 [label=<entropy = 0.0<br/>samples = 45<br/>value = [45, 0]<br/>class = High>, fillcolor="#e58139"] ;
262 -> 263 ;
264 [label=<l_b_spot &le; 2.096<br/>entropy = 0.436<br/>samples = 100<br/>value = [91, 9]<br/>class = High>, fillcolor="#e88d4d"] ;
262 -> 264 ;
265 [label=<l_b_spot &le; 2.05<br/>entropy = 0.405<br/>samples = 99<br/>value = [91, 8]<br/>class = High>, fillcolor="#e78c4a"] ;
264 -> 265 ;
266 [label=<entropy = 0.0<br/>samples = 18<br/>value = [18, 0]<br/>class = High>, fillcolor="#e58139"] ;
265 -> 266 ;
267 [label=<entropy = 0.465<br/>samples = 81<br/>value = [73, 8]<br/>class = High>, fillcolor="#e88f4f"] ;
265 -> 267 ;
268 [label=<entropy = 0.0<br/>samples = 1<br/>value = [0, 1]<br/>class = Low>, fillcolor="#399de5"] ;
264 -> 268 ;
269 [label=<l_b_spot &le; 2.031<br/>entropy = 0.789<br/>samples = 220<br/>value = [168, 52]<br/>class = High>, fillcolor="#eda876"] ;
253 -> 269 ;
270 [label=<l_b_spot &le; 1.995<br/>entropy = 0.893<br/>samples = 113<br/>value = [78, 35]<br/>class = High>, fillcolor="#f1ba92"] ;
269 -> 270 ;
271 [label=<AirTemp &le; 1.95<br/>entropy = 0.639<br/>samples = 37<br/>value = [31, 6]<br/>class = High>, fillcolor="#ea995f"] ;
270 -> 271 ;
272 [label=<AirTemp &le; 1.45<br/>entropy = 0.795<br/>samples = 25<br/>value = [19, 6]<br/>class = High>, fillcolor="#eda978"] ;
271 -> 272 ;
273 [label=<entropy = 0.918<br/>samples = 3<br/>value = [1, 2]<br/>class = Low>, fillcolor="#9ccef2"] ;
272 -> 273 ;
274 [label=<entropy = 0.684<br/>samples = 22<br/>value = [18, 4]<br/>class = High>, fillcolor="#eb9d65"] ;
272 -> 274 ;
275 [label=<entropy = 0.0<br/>samples = 12<br/>value = [12, 0]<br/>class = High>, fillcolor="#e58139"] ;
271 -> 275 ;
276 [label=<l_b_spot &le; 2.028<br/>entropy = 0.959<br/>samples = 76<br/>value = [47, 29]<br/>class = High>, fillcolor="#f5cfb3"] ;
270 -> 276 ;
277 [label=<l_b_spot &le; 2.01<br/>entropy = 0.936<br/>samples = 71<br/>value = [46, 25]<br/>class = High>, fillcolor="#f3c5a5"] ;
276 -> 277 ;
278 [label=<entropy = 1.0<br/>samples = 34<br/>value = [17, 17]<br/>class = High>, fillcolor="#ffffff"] ;
277 -> 278 ;
279 [label=<entropy = 0.753<br/>samples = 37<br/>value = [29, 8]<br/>class = High>, fillcolor="#eca470"] ;
277 -> 279 ;
280 [label=<AirTemp &le; 1.7<br/>entropy = 0.722<br/>samples = 5<br/>value = [1, 4]<br/>class = Low>, fillcolor="#6ab6ec"] ;
276 -> 280 ;
281 [label=<entropy = 1.0<br/>samples = 2<br/>value = [1, 1]<br/>class = High>, fillcolor="#ffffff"] ;
280 -> 281 ;
282 [label=<entropy = 0.0<br/>samples = 3<br/>value = [0, 3]<br/>class = Low>, fillcolor="#399de5"] ;
280 -> 282 ;
283 [label=<l_b_spot &le; 2.041<br/>entropy = 0.632<br/>samples = 107<br/>value = [90, 17]<br/>class = High>, fillcolor="#ea995e"] ;
269 -> 283 ;
284 [label=<entropy = 0.0<br/>samples = 17<br/>value = [17, 0]<br/>class = High>, fillcolor="#e58139"] ;
283 -> 284 ;
285 [label=<l_b_spot &le; 2.085<br/>entropy = 0.699<br/>samples = 90<br/>value = [73, 17]<br/>class = High>, fillcolor="#eb9e67"] ;
283 -> 285 ;
286 [label=<l_b_spot &le; 2.042<br/>entropy = 0.619<br/>samples = 78<br/>value = [66, 12]<br/>class = High>, fillcolor="#ea985d"] ;
285 -> 286 ;
287 [label=<entropy = 1.0<br/>samples = 6<br/>value = [3, 3]<br/>class = High>, fillcolor="#ffffff"] ;
286 -> 287 ;
288 [label=<entropy = 0.544<br/>samples = 72<br/>value = [63, 9]<br/>class = High>, fillcolor="#e99355"] ;
286 -> 288 ;
289 [label=<l_b_spot &le; 2.087<br/>entropy = 0.98<br/>samples = 12<br/>value = [7, 5]<br/>class = High>, fillcolor="#f8dbc6"] ;
285 -> 289 ;
290 [label=<entropy = 0.0<br/>samples = 2<br/>value = [0, 2]<br/>class = Low>, fillcolor="#399de5"] ;
289 -> 290 ;
291 [label=<entropy = 0.881<br/>samples = 10<br/>value = [7, 3]<br/>class = High>, fillcolor="#f0b78e"] ;
289 -> 291 ;
292 [label=<AirTemp &le; 1.25<br/>entropy = 0.116<br/>samples = 769<br/>value = [757, 12]<br/>class = High>, fillcolor="#e5833c"] ;
250 -> 292 ;
293 [label=<entropy = 0.0<br/>samples = 590<br/>value = [590, 0]<br/>class = High>, fillcolor="#e58139"] ;
292 -> 293 ;
294 [label=<l_b_spot &le; 2.324<br/>entropy = 0.355<br/>samples = 179<br/>value = [167, 12]<br/>class = High>, fillcolor="#e78a47"] ;
292 -> 294 ;
295 [label=<l_b_spot &le; 2.315<br/>entropy = 0.523<br/>samples = 102<br/>value = [90, 12]<br/>class = High>, fillcolor="#e89253"] ;
294 -> 295 ;
296 [label=<AirTemp &le; 1.35<br/>entropy = 0.497<br/>samples = 101<br/>value = [90, 11]<br/>class = High>, fillcolor="#e89051"] ;
295 -> 296 ;
297 [label=<l_b_spot &le; 2.161<br/>entropy = 0.811<br/>samples = 16<br/>value = [12, 4]<br/>class = High>, fillcolor="#eeab7b"] ;
296 -> 297 ;
298 [label=<l_b_spot &le; 2.128<br/>entropy = 0.503<br/>samples = 9<br/>value = [8, 1]<br/>class = High>, fillcolor="#e89152"] ;
297 -> 298 ;
299 [label=<entropy = 1.0<br/>samples = 2<br/>value = [1, 1]<br/>class = High>, fillcolor="#ffffff"] ;
298 -> 299 ;
300 [label=<entropy = 0.0<br/>samples = 7<br/>value = [7, 0]<br/>class = High>, fillcolor="#e58139"] ;
298 -> 300 ;
301 [label=<l_b_spot &le; 2.203<br/>entropy = 0.985<br/>samples = 7<br/>value = [4, 3]<br/>class = High>, fillcolor="#f8e0ce"] ;
297 -> 301 ;
302 [label=<entropy = 0.0<br/>samples = 2<br/>value = [0, 2]<br/>class = Low>, fillcolor="#399de5"] ;
301 -> 302 ;
303 [label=<entropy = 0.722<br/>samples = 5<br/>value = [4, 1]<br/>class = High>, fillcolor="#eca06a"] ;
301 -> 303 ;
304 [label=<l_b_spot &le; 2.113<br/>entropy = 0.41<br/>samples = 85<br/>value = [78, 7]<br/>class = High>, fillcolor="#e78c4b"] ;
296 -> 304 ;
305 [label=<AirTemp &le; 1.85<br/>entropy = 0.811<br/>samples = 12<br/>value = [9, 3]<br/>class = High>, fillcolor="#eeab7b"] ;
304 -> 305 ;
306 [label=<entropy = 1.0<br/>samples = 6<br/>value = [3, 3]<br/>class = High>, fillcolor="#ffffff"] ;
305 -> 306 ;
307 [label=<entropy = 0.0<br/>samples = 6<br/>value = [6, 0]<br/>class = High>, fillcolor="#e58139"] ;
305 -> 307 ;
308 [label=<l_b_spot &le; 2.2<br/>entropy = 0.306<br/>samples = 73<br/>value = [69, 4]<br/>class = High>, fillcolor="#e78844"] ;
304 -> 308 ;
309 [label=<entropy = 0.141<br/>samples = 50<br/>value = [49, 1]<br/>class = High>, fillcolor="#e6843d"] ;
308 -> 309 ;
310 [label=<entropy = 0.559<br/>samples = 23<br/>value = [20, 3]<br/>class = High>, fillcolor="#e99457"] ;
308 -> 310 ;
311 [label=<entropy = 0.0<br/>samples = 1<br/>value = [0, 1]<br/>class = Low>, fillcolor="#399de5"] ;
295 -> 311 ;
312 [label=<entropy = 0.0<br/>samples = 77<br/>value = [77, 0]<br/>class = High>, fillcolor="#e58139"] ;
294 -> 312 ;
313 [label=<l_b_spot &le; 2.161<br/>entropy = 0.96<br/>samples = 2134<br/>value = [1317, 817]<br/>class = High>, fillcolor="#f5cfb4"] ;
249 -> 313 ;
314 [label=<AirTemp &le; 4.25<br/>entropy = 0.991<br/>samples = 1164<br/>value = [517, 647]<br/>class = Low>, fillcolor="#d7ebfa"] ;
313 -> 314 ;
315 [label=<l_b_spot &le; 2.046<br/>entropy = 0.991<br/>samples = 503<br/>value = [280, 223]<br/>class = High>, fillcolor="#fae5d7"] ;
314 -> 315 ;
316 [label=<l_b_spot &le; 1.983<br/>entropy = 1.0<br/>samples = 306<br/>value = [153, 153]<br/>class = High>, fillcolor="#ffffff"] ;
315 -> 316 ;
317 [label=<l_b_spot &le; 1.981<br/>entropy = 0.773<br/>samples = 22<br/>value = [17, 5]<br/>class = High>, fillcolor="#eda673"] ;
316 -> 317 ;
318 [label=<l_b_spot &le; 1.98<br/>entropy = 0.961<br/>samples = 13<br/>value = [8, 5]<br/>class = High>, fillcolor="#f5d0b5"] ;
317 -> 318 ;
319 [label=<AirTemp &le; 2.95<br/>entropy = 0.544<br/>samples = 8<br/>value = [7, 1]<br/>class = High>, fillcolor="#e99355"] ;
318 -> 319 ;
320 [label=<entropy = 0.918<br/>samples = 3<br/>value = [2, 1]<br/>class = High>, fillcolor="#f2c09c"] ;
319 -> 320 ;
321 [label=<entropy = 0.0<br/>samples = 5<br/>value = [5, 0]<br/>class = High>, fillcolor="#e58139"] ;
319 -> 321 ;
322 [label=<AirTemp &le; 3.3<br/>entropy = 0.722<br/>samples = 5<br/>value = [1, 4]<br/>class = Low>, fillcolor="#6ab6ec"] ;
318 -> 322 ;
323 [label=<entropy = 0.0<br/>samples = 3<br/>value = [0, 3]<br/>class = Low>, fillcolor="#399de5"] ;
322 -> 323 ;
324 [label=<entropy = 1.0<br/>samples = 2<br/>value = [1, 1]<br/>class = High>, fillcolor="#ffffff"] ;
322 -> 324 ;
325 [label=<entropy = 0.0<br/>samples = 9<br/>value = [9, 0]<br/>class = High>, fillcolor="#e58139"] ;
317 -> 325 ;
326 [label=<l_b_spot &le; 2.04<br/>entropy = 0.999<br/>samples = 284<br/>value = [136, 148]<br/>class = Low>, fillcolor="#eff7fd"] ;
316 -> 326 ;
327 [label=<l_b_spot &le; 2.038<br/>entropy = 1.0<br/>samples = 265<br/>value = [131, 134]<br/>class = Low>, fillcolor="#fbfdfe"] ;
326 -> 327 ;
328 [label=<l_b_spot &le; 2.027<br/>entropy = 0.999<br/>samples = 255<br/>value = [122, 133]<br/>class = Low>, fillcolor="#eff7fd"] ;
327 -> 328 ;
329 [label=<entropy = 0.995<br/>samples = 221<br/>value = [101, 120]<br/>class = Low>, fillcolor="#e0effb"] ;
328 -> 329 ;
330 [label=<entropy = 0.96<br/>samples = 34<br/>value = [21, 13]<br/>class = High>, fillcolor="#f5cfb4"] ;
328 -> 330 ;
331 [label=<l_b_spot &le; 2.039<br/>entropy = 0.469<br/>samples = 10<br/>value = [9, 1]<br/>class = High>, fillcolor="#e88f4f"] ;
327 -> 331 ;
332 [label=<entropy = 0.0<br/>samples = 7<br/>value = [7, 0]<br/>class = High>, fillcolor="#e58139"] ;
331 -> 332 ;
333 [label=<entropy = 0.918<br/>samples = 3<br/>value = [2, 1]<br/>class = High>, fillcolor="#f2c09c"] ;
331 -> 333 ;
334 [label=<AirTemp &le; 4.05<br/>entropy = 0.831<br/>samples = 19<br/>value = [5, 14]<br/>class = Low>, fillcolor="#80c0ee"] ;
326 -> 334 ;
335 [label=<l_b_spot &le; 2.04<br/>entropy = 0.764<br/>samples = 18<br/>value = [4, 14]<br/>class = Low>, fillcolor="#72b9ec"] ;
334 -> 335 ;
336 [label=<entropy = 0.0<br/>samples = 4<br/>value = [0, 4]<br/>class = Low>, fillcolor="#399de5"] ;
335 -> 336 ;
337 [label=<entropy = 0.863<br/>samples = 14<br/>value = [4, 10]<br/>class = Low>, fillcolor="#88c4ef"] ;
335 -> 337 ;
338 [label=<entropy = 0.0<br/>samples = 1<br/>value = [1, 0]<br/>class = High>, fillcolor="#e58139"] ;
334 -> 338 ;
339 [label=<AirTemp &le; 2.95<br/>entropy = 0.939<br/>samples = 197<br/>value = [127, 70]<br/>class = High>, fillcolor="#f3c6a6"] ;
315 -> 339 ;
340 [label=<l_b_spot &le; 2.048<br/>entropy = 0.806<br/>samples = 73<br/>value = [55, 18]<br/>class = High>, fillcolor="#eeaa7a"] ;
339 -> 340 ;
341 [label=<entropy = 0.0<br/>samples = 4<br/>value = [4, 0]<br/>class = High>, fillcolor="#e58139"] ;
340 -> 341 ;
342 [label=<l_b_spot &le; 2.049<br/>entropy = 0.828<br/>samples = 69<br/>value = [51, 18]<br/>class = High>, fillcolor="#eead7f"] ;
340 -> 342 ;
343 [label=<entropy = 0.0<br/>samples = 1<br/>value = [0, 1]<br/>class = Low>, fillcolor="#399de5"] ;
342 -> 343 ;
344 [label=<l_b_spot &le; 2.059<br/>entropy = 0.811<br/>samples = 68<br/>value = [51, 17]<br/>class = High>, fillcolor="#eeab7b"] ;
342 -> 344 ;
345 [label=<entropy = 0.414<br/>samples = 12<br/>value = [11, 1]<br/>class = High>, fillcolor="#e78c4b"] ;
344 -> 345 ;
346 [label=<entropy = 0.863<br/>samples = 56<br/>value = [40, 16]<br/>class = High>, fillcolor="#efb388"] ;
344 -> 346 ;
347 [label=<l_b_spot &le; 2.06<br/>entropy = 0.981<br/>samples = 124<br/>value = [72, 52]<br/>class = High>, fillcolor="#f8dcc8"] ;
339 -> 347 ;
348 [label=<l_b_spot &le; 2.056<br/>entropy = 0.863<br/>samples = 35<br/>value = [25, 10]<br/>class = High>, fillcolor="#efb388"] ;
347 -> 348 ;
349 [label=<l_b_spot &le; 2.056<br/>entropy = 0.961<br/>samples = 26<br/>value = [16, 10]<br/>class = High>, fillcolor="#f5d0b5"] ;
348 -> 349 ;
350 [label=<entropy = 0.943<br/>samples = 25<br/>value = [16, 9]<br/>class = High>, fillcolor="#f4c8a8"] ;
349 -> 350 ;
351 [label=<entropy = 0.0<br/>samples = 1<br/>value = [0, 1]<br/>class = Low>, fillcolor="#399de5"] ;
349 -> 351 ;
352 [label=<entropy = 0.0<br/>samples = 9<br/>value = [9, 0]<br/>class = High>, fillcolor="#e58139"] ;
348 -> 352 ;
353 [label=<AirTemp &le; 4.15<br/>entropy = 0.998<br/>samples = 89<br/>value = [47, 42]<br/>class = High>, fillcolor="#fcf2ea"] ;
347 -> 353 ;
354 [label=<l_b_spot &le; 2.067<br/>entropy = 1.0<br/>samples = 80<br/>value = [40, 40]<br/>class = High>, fillcolor="#ffffff"] ;
353 -> 354 ;
355 [label=<entropy = 0.811<br/>samples = 8<br/>value = [2, 6]<br/>class = Low>, fillcolor="#7bbeee"] ;
354 -> 355 ;
356 [label=<entropy = 0.998<br/>samples = 72<br/>value = [38, 34]<br/>class = High>, fillcolor="#fcf2ea"] ;
354 -> 356 ;
357 [label=<l_b_spot &le; 2.074<br/>entropy = 0.764<br/>samples = 9<br/>value = [7, 2]<br/>class = High>, fillcolor="#eca572"] ;
353 -> 357 ;
358 [label=<entropy = 1.0<br/>samples = 2<br/>value = [1, 1]<br/>class = High>, fillcolor="#ffffff"] ;
357 -> 358 ;
359 [label=<entropy = 0.592<br/>samples = 7<br/>value = [6, 1]<br/>class = High>, fillcolor="#e9965a"] ;
357 -> 359 ;
360 [label=<l_b_spot &le; 2.0<br/>entropy = 0.941<br/>samples = 661<br/>value = [237, 424]<br/>class = Low>, fillcolor="#a8d4f4"] ;
314 -> 360 ;
361 [label=<l_b_spot &le; 1.994<br/>entropy = 0.769<br/>samples = 138<br/>value = [31, 107]<br/>class = Low>, fillcolor="#72b9ed"] ;
360 -> 361 ;
362 [label=<AirTemp &le; 6.05<br/>entropy = 0.836<br/>samples = 109<br/>value = [29, 80]<br/>class = Low>, fillcolor="#81c1ee"] ;
361 -> 362 ;
363 [label=<l_b_spot &le; 1.98<br/>entropy = 0.751<br/>samples = 79<br/>value = [17, 62]<br/>class = Low>, fillcolor="#6fb8ec"] ;
362 -> 363 ;
364 [label=<l_b_spot &le; 1.979<br/>entropy = 0.985<br/>samples = 7<br/>value = [4, 3]<br/>class = High>, fillcolor="#f8e0ce"] ;
363 -> 364 ;
365 [label=<entropy = 0.971<br/>samples = 5<br/>value = [2, 3]<br/>class = Low>, fillcolor="#bddef6"] ;
364 -> 365 ;
366 [label=<entropy = 0.0<br/>samples = 2<br/>value = [2, 0]<br/>class = High>, fillcolor="#e58139"] ;
364 -> 366 ;
367 [label=<l_b_spot &le; 1.994<br/>entropy = 0.681<br/>samples = 72<br/>value = [13, 59]<br/>class = Low>, fillcolor="#65b3eb"] ;
363 -> 367 ;
368 [label=<entropy = 0.655<br/>samples = 71<br/>value = [12, 59]<br/>class = Low>, fillcolor="#61b1ea"] ;
367 -> 368 ;
369 [label=<entropy = 0.0<br/>samples = 1<br/>value = [1, 0]<br/>class = High>, fillcolor="#e58139"] ;
367 -> 369 ;
370 [label=<AirTemp &le; 6.25<br/>entropy = 0.971<br/>samples = 30<br/>value = [12, 18]<br/>class = Low>, fillcolor="#bddef6"] ;
362 -> 370 ;
371 [label=<l_b_spot &le; 1.984<br/>entropy = 0.954<br/>samples = 8<br/>value = [5, 3]<br/>class = High>, fillcolor="#f5cdb0"] ;
370 -> 371 ;
372 [label=<entropy = 0.65<br/>samples = 6<br/>value = [5, 1]<br/>class = High>, fillcolor="#ea9a61"] ;
371 -> 372 ;
373 [label=<entropy = 0.0<br/>samples = 2<br/>value = [0, 2]<br/>class = Low>, fillcolor="#399de5"] ;
371 -> 373 ;
374 [label=<l_b_spot &le; 1.99<br/>entropy = 0.902<br/>samples = 22<br/>value = [7, 15]<br/>class = Low>, fillcolor="#95cbf1"] ;
370 -> 374 ;
375 [label=<entropy = 0.619<br/>samples = 13<br/>value = [2, 11]<br/>class = Low>, fillcolor="#5dafea"] ;
374 -> 375 ;
376 [label=<entropy = 0.991<br/>samples = 9<br/>value = [5, 4]<br/>class = High>, fillcolor="#fae6d7"] ;
374 -> 376 ;
377 [label=<AirTemp &le; 4.95<br/>entropy = 0.362<br/>samples = 29<br/>value = [2, 27]<br/>class = Low>, fillcolor="#48a4e7"] ;
361 -> 377 ;
378 [label=<AirTemp &le; 4.85<br/>entropy = 0.722<br/>samples = 10<br/>value = [2, 8]<br/>class = Low>, fillcolor="#6ab6ec"] ;
377 -> 378 ;
379 [label=<l_b_spot &le; 1.996<br/>entropy = 0.503<br/>samples = 9<br/>value = [1, 8]<br/>class = Low>, fillcolor="#52a9e8"] ;
378 -> 379 ;
380 [label=<entropy = 1.0<br/>samples = 2<br/>value = [1, 1]<br/>class = High>, fillcolor="#ffffff"] ;
379 -> 380 ;
381 [label=<entropy = 0.0<br/>samples = 7<br/>value = [0, 7]<br/>class = Low>, fillcolor="#399de5"] ;
379 -> 381 ;
382 [label=<entropy = 0.0<br/>samples = 1<br/>value = [1, 0]<br/>class = High>, fillcolor="#e58139"] ;
378 -> 382 ;
383 [label=<entropy = 0.0<br/>samples = 19<br/>value = [0, 19]<br/>class = Low>, fillcolor="#399de5"] ;
377 -> 383 ;
384 [label=<l_b_spot &le; 2.125<br/>entropy = 0.967<br/>samples = 523<br/>value = [206, 317]<br/>class = Low>, fillcolor="#baddf6"] ;
360 -> 384 ;
385 [label=<l_b_spot &le; 2.121<br/>entropy = 0.956<br/>samples = 469<br/>value = [177, 292]<br/>class = Low>, fillcolor="#b1d8f5"] ;
384 -> 385 ;
386 [label=<l_b_spot &le; 2.002<br/>entropy = 0.96<br/>samples = 462<br/>value = [177, 285]<br/>class = Low>, fillcolor="#b4daf5"] ;
385 -> 386 ;
387 [label=<AirTemp &le; 6.8<br/>entropy = 0.881<br/>samples = 10<br/>value = [7, 3]<br/>class = High>, fillcolor="#f0b78e"] ;
386 -> 387 ;
388 [label=<entropy = 0.764<br/>samples = 9<br/>value = [7, 2]<br/>class = High>, fillcolor="#eca572"] ;
387 -> 388 ;
389 [label=<entropy = 0.0<br/>samples = 1<br/>value = [0, 1]<br/>class = Low>, fillcolor="#399de5"] ;
387 -> 389 ;
390 [label=<AirTemp &le; 4.45<br/>entropy = 0.955<br/>samples = 452<br/>value = [170, 282]<br/>class = Low>, fillcolor="#b0d8f5"] ;
386 -> 390 ;
391 [label=<entropy = 0.784<br/>samples = 30<br/>value = [7, 23]<br/>class = Low>, fillcolor="#75bbed"] ;
390 -> 391 ;
392 [label=<entropy = 0.962<br/>samples = 422<br/>value = [163, 259]<br/>class = Low>, fillcolor="#b6dbf5"] ;
390 -> 392 ;
393 [label=<entropy = 0.0<br/>samples = 7<br/>value = [0, 7]<br/>class = Low>, fillcolor="#399de5"] ;
385 -> 393 ;
394 [label=<l_b_spot &le; 2.126<br/>entropy = 0.996<br/>samples = 54<br/>value = [29, 25]<br/>class = High>, fillcolor="#fbeee4"] ;
384 -> 394 ;
395 [label=<entropy = 0.0<br/>samples = 2<br/>value = [2, 0]<br/>class = High>, fillcolor="#e58139"] ;
394 -> 395 ;
396 [label=<l_b_spot &le; 2.126<br/>entropy = 0.999<br/>samples = 52<br/>value = [27, 25]<br/>class = High>, fillcolor="#fdf6f0"] ;
394 -> 396 ;
397 [label=<entropy = 0.0<br/>samples = 1<br/>value = [0, 1]<br/>class = Low>, fillcolor="#399de5"] ;
396 -> 397 ;
398 [label=<l_b_spot &le; 2.128<br/>entropy = 0.998<br/>samples = 51<br/>value = [27, 24]<br/>class = High>, fillcolor="#fcf1e9"] ;
396 -> 398 ;
399 [label=<entropy = 0.0<br/>samples = 2<br/>value = [2, 0]<br/>class = High>, fillcolor="#e58139"] ;
398 -> 399 ;
400 [label=<entropy = 1.0<br/>samples = 49<br/>value = [25, 24]<br/>class = High>, fillcolor="#fefaf7"] ;
398 -> 400 ;
401 [label=<l_b_spot &le; 2.351<br/>entropy = 0.67<br/>samples = 970<br/>value = [800, 170]<br/>class = High>, fillcolor="#eb9c63"] ;
313 -> 401 ;
402 [label=<AirTemp &le; 3.25<br/>entropy = 0.875<br/>samples = 336<br/>value = [237, 99]<br/>class = High>, fillcolor="#f0b68c"] ;
401 -> 402 ;
403 [label=<AirTemp &le; 2.55<br/>entropy = 0.42<br/>samples = 47<br/>value = [43, 4]<br/>class = High>, fillcolor="#e78d4b"] ;
402 -> 403 ;
404 [label=<entropy = 0.0<br/>samples = 13<br/>value = [13, 0]<br/>class = High>, fillcolor="#e58139"] ;
403 -> 404 ;
405 [label=<l_b_spot &le; 2.183<br/>entropy = 0.523<br/>samples = 34<br/>value = [30, 4]<br/>class = High>, fillcolor="#e89253"] ;
403 -> 405 ;
406 [label=<entropy = 0.0<br/>samples = 10<br/>value = [10, 0]<br/>class = High>, fillcolor="#e58139"] ;
405 -> 406 ;
407 [label=<l_b_spot &le; 2.201<br/>entropy = 0.65<br/>samples = 24<br/>value = [20, 4]<br/>class = High>, fillcolor="#ea9a61"] ;
405 -> 407 ;
408 [label=<AirTemp &le; 2.95<br/>entropy = 0.918<br/>samples = 3<br/>value = [1, 2]<br/>class = Low>, fillcolor="#9ccef2"] ;
407 -> 408 ;
409 [label=<entropy = 0.0<br/>samples = 2<br/>value = [0, 2]<br/>class = Low>, fillcolor="#399de5"] ;
408 -> 409 ;
410 [label=<entropy = 0.0<br/>samples = 1<br/>value = [1, 0]<br/>class = High>, fillcolor="#e58139"] ;
408 -> 410 ;
411 [label=<l_b_spot &le; 2.243<br/>entropy = 0.454<br/>samples = 21<br/>value = [19, 2]<br/>class = High>, fillcolor="#e88e4e"] ;
407 -> 411 ;
412 [label=<entropy = 0.0<br/>samples = 14<br/>value = [14, 0]<br/>class = High>, fillcolor="#e58139"] ;
411 -> 412 ;
413 [label=<entropy = 0.863<br/>samples = 7<br/>value = [5, 2]<br/>class = High>, fillcolor="#efb388"] ;
411 -> 413 ;
414 [label=<l_b_spot &le; 2.167<br/>entropy = 0.914<br/>samples = 289<br/>value = [194, 95]<br/>class = High>, fillcolor="#f2bf9a"] ;
402 -> 414 ;
415 [label=<l_b_spot &le; 2.162<br/>entropy = 0.391<br/>samples = 13<br/>value = [12, 1]<br/>class = High>, fillcolor="#e78c49"] ;
414 -> 415 ;
416 [label=<l_b_spot &le; 2.161<br/>entropy = 0.918<br/>samples = 3<br/>value = [2, 1]<br/>class = High>, fillcolor="#f2c09c"] ;
415 -> 416 ;
417 [label=<entropy = 0.0<br/>samples = 2<br/>value = [2, 0]<br/>class = High>, fillcolor="#e58139"] ;
416 -> 417 ;
418 [label=<entropy = 0.0<br/>samples = 1<br/>value = [0, 1]<br/>class = Low>, fillcolor="#399de5"] ;
416 -> 418 ;
419 [label=<entropy = 0.0<br/>samples = 10<br/>value = [10, 0]<br/>class = High>, fillcolor="#e58139"] ;
415 -> 419 ;
420 [label=<AirTemp &le; 6.65<br/>entropy = 0.925<br/>samples = 276<br/>value = [182, 94]<br/>class = High>, fillcolor="#f2c29f"] ;
414 -> 420 ;
421 [label=<l_b_spot &le; 2.306<br/>entropy = 0.907<br/>samples = 248<br/>value = [168, 80]<br/>class = High>, fillcolor="#f1bd97"] ;
420 -> 421 ;
422 [label=<l_b_spot &le; 2.199<br/>entropy = 0.868<br/>samples = 197<br/>value = [140, 57]<br/>class = High>, fillcolor="#f0b48a"] ;
421 -> 422 ;
423 [label=<entropy = 0.976<br/>samples = 61<br/>value = [36, 25]<br/>class = High>, fillcolor="#f7d8c2"] ;
422 -> 423 ;
424 [label=<entropy = 0.787<br/>samples = 136<br/>value = [104, 32]<br/>class = High>, fillcolor="#eda876"] ;
422 -> 424 ;
425 [label=<l_b_spot &le; 2.316<br/>entropy = 0.993<br/>samples = 51<br/>value = [28, 23]<br/>class = High>, fillcolor="#fae8dc"] ;
421 -> 425 ;
426 [label=<entropy = 0.764<br/>samples = 9<br/>value = [2, 7]<br/>class = Low>, fillcolor="#72b9ec"] ;
425 -> 426 ;
427 [label=<entropy = 0.959<br/>samples = 42<br/>value = [26, 16]<br/>class = High>, fillcolor="#f5cfb3"] ;
425 -> 427 ;
428 [label=<l_b_spot &le; 2.184<br/>entropy = 1.0<br/>samples = 28<br/>value = [14, 14]<br/>class = High>, fillcolor="#ffffff"] ;
420 -> 428 ;
429 [label=<entropy = 0.0<br/>samples = 2<br/>value = [0, 2]<br/>class = Low>, fillcolor="#399de5"] ;
428 -> 429 ;
430 [label=<l_b_spot &le; 2.314<br/>entropy = 0.996<br/>samples = 26<br/>value = [14, 12]<br/>class = High>, fillcolor="#fbede3"] ;
428 -> 430 ;
431 [label=<entropy = 1.0<br/>samples = 24<br/>value = [12, 12]<br/>class = High>, fillcolor="#ffffff"] ;
430 -> 431 ;
432 [label=<entropy = 0.0<br/>samples = 2<br/>value = [2, 0]<br/>class = High>, fillcolor="#e58139"] ;
430 -> 432 ;
433 [label=<AirTemp &le; 6.55<br/>entropy = 0.506<br/>samples = 634<br/>value = [563, 71]<br/>class = High>, fillcolor="#e89152"] ;
401 -> 433 ;
434 [label=<AirTemp &le; 3.75<br/>entropy = 0.433<br/>samples = 584<br/>value = [532, 52]<br/>class = High>, fillcolor="#e88d4c"] ;
433 -> 434 ;
435 [label=<l_b_spot &le; 2.442<br/>entropy = 0.2<br/>samples = 161<br/>value = [156, 5]<br/>class = High>, fillcolor="#e6853f"] ;
434 -> 435 ;
436 [label=<l_b_spot &le; 2.398<br/>entropy = 0.426<br/>samples = 46<br/>value = [42, 4]<br/>class = High>, fillcolor="#e78d4c"] ;
435 -> 436 ;
437 [label=<entropy = 0.0<br/>samples = 22<br/>value = [22, 0]<br/>class = High>, fillcolor="#e58139"] ;
436 -> 437 ;
438 [label=<l_b_spot &le; 2.405<br/>entropy = 0.65<br/>samples = 24<br/>value = [20, 4]<br/>class = High>, fillcolor="#ea9a61"] ;
436 -> 438 ;
439 [label=<entropy = 0.811<br/>samples = 4<br/>value = [1, 3]<br/>class = Low>, fillcolor="#7bbeee"] ;
438 -> 439 ;
440 [label=<entropy = 0.286<br/>samples = 20<br/>value = [19, 1]<br/>class = High>, fillcolor="#e68843"] ;
438 -> 440 ;
441 [label=<l_b_spot &le; 2.607<br/>entropy = 0.072<br/>samples = 115<br/>value = [114, 1]<br/>class = High>, fillcolor="#e5823b"] ;
435 -> 441 ;
442 [label=<entropy = 0.0<br/>samples = 79<br/>value = [79, 0]<br/>class = High>, fillcolor="#e58139"] ;
441 -> 442 ;
443 [label=<l_b_spot &le; 2.61<br/>entropy = 0.183<br/>samples = 36<br/>value = [35, 1]<br/>class = High>, fillcolor="#e6853f"] ;
441 -> 443 ;
444 [label=<entropy = 0.0<br/>samples = 1<br/>value = [0, 1]<br/>class = Low>, fillcolor="#399de5"] ;
443 -> 444 ;
445 [label=<entropy = 0.0<br/>samples = 35<br/>value = [35, 0]<br/>class = High>, fillcolor="#e58139"] ;
443 -> 445 ;
446 [label=<l_b_spot &le; 2.788<br/>entropy = 0.503<br/>samples = 423<br/>value = [376, 47]<br/>class = High>, fillcolor="#e89152"] ;
434 -> 446 ;
447 [label=<l_b_spot &le; 2.744<br/>entropy = 0.514<br/>samples = 410<br/>value = [363, 47]<br/>class = High>, fillcolor="#e89153"] ;
446 -> 447 ;
448 [label=<AirTemp &le; 5.05<br/>entropy = 0.507<br/>samples = 409<br/>value = [363, 46]<br/>class = High>, fillcolor="#e89152"] ;
447 -> 448 ;
449 [label=<entropy = 0.424<br/>samples = 197<br/>value = [180, 17]<br/>class = High>, fillcolor="#e78d4c"] ;
448 -> 449 ;
450 [label=<entropy = 0.576<br/>samples = 212<br/>value = [183, 29]<br/>class = High>, fillcolor="#e99558"] ;
448 -> 450 ;
451 [label=<entropy = 0.0<br/>samples = 1<br/>value = [0, 1]<br/>class = Low>, fillcolor="#399de5"] ;
447 -> 451 ;
452 [label=<entropy = 0.0<br/>samples = 13<br/>value = [13, 0]<br/>class = High>, fillcolor="#e58139"] ;
446 -> 452 ;
453 [label=<l_b_spot &le; 2.379<br/>entropy = 0.958<br/>samples = 50<br/>value = [31, 19]<br/>class = High>, fillcolor="#f5ceb2"] ;
433 -> 453 ;
454 [label=<entropy = 0.0<br/>samples = 4<br/>value = [0, 4]<br/>class = Low>, fillcolor="#399de5"] ;
453 -> 454 ;
455 [label=<l_b_spot &le; 2.683<br/>entropy = 0.911<br/>samples = 46<br/>value = [31, 15]<br/>class = High>, fillcolor="#f2be99"] ;
453 -> 455 ;
456 [label=<l_b_spot &le; 2.393<br/>entropy = 0.94<br/>samples = 42<br/>value = [27, 15]<br/>class = High>, fillcolor="#f3c7a7"] ;
455 -> 456 ;
457 [label=<entropy = 0.0<br/>samples = 3<br/>value = [3, 0]<br/>class = High>, fillcolor="#e58139"] ;
456 -> 457 ;
458 [label=<l_b_spot &le; 2.409<br/>entropy = 0.961<br/>samples = 39<br/>value = [24, 15]<br/>class = High>, fillcolor="#f5d0b5"] ;
456 -> 458 ;
459 [label=<entropy = 0.811<br/>samples = 4<br/>value = [1, 3]<br/>class = Low>, fillcolor="#7bbeee"] ;
458 -> 459 ;
460 [label=<entropy = 0.928<br/>samples = 35<br/>value = [23, 12]<br/>class = High>, fillcolor="#f3c3a0"] ;
458 -> 460 ;
461 [label=<entropy = 0.0<br/>samples = 4<br/>value = [4, 0]<br/>class = High>, fillcolor="#e58139"] ;
455 -> 461 ;
462 [label=<AirTemp &le; 10.45<br/>entropy = 0.291<br/>samples = 11251<br/>value = [576, 10675]<br/>class = Low>, fillcolor="#44a2e6"] ;
0 -> 462 [labeldistance=2.5, labelangle=-45, headlabel="False"] ;
463 [label=<l_b_spot &le; 2.099<br/>entropy = 0.629<br/>samples = 3103<br/>value = [490, 2613]<br/>class = Low>, fillcolor="#5eafea"] ;
462 -> 463 ;
464 [label=<AirTemp &le; 9.45<br/>entropy = 0.474<br/>samples = 2671<br/>value = [271, 2400]<br/>class = Low>, fillcolor="#4fa8e8"] ;
463 -> 464 ;
465 [label=<l_b_spot &le; 1.685<br/>entropy = 0.525<br/>samples = 1943<br/>value = [230, 1713]<br/>class = Low>, fillcolor="#54aae8"] ;
464 -> 465 ;
466 [label=<l_b_spot &le; 1.684<br/>entropy = 0.688<br/>samples = 354<br/>value = [65, 289]<br/>class = Low>, fillcolor="#66b3eb"] ;
465 -> 466 ;
467 [label=<l_b_spot &le; 1.499<br/>entropy = 0.678<br/>samples = 352<br/>value = [63, 289]<br/>class = Low>, fillcolor="#64b2eb"] ;
466 -> 467 ;
468 [label=<entropy = 0.0<br/>samples = 13<br/>value = [0, 13]<br/>class = Low>, fillcolor="#399de5"] ;
467 -> 468 ;
469 [label=<l_b_spot &le; 1.519<br/>entropy = 0.693<br/>samples = 339<br/>value = [63, 276]<br/>class = Low>, fillcolor="#66b3eb"] ;
467 -> 469 ;
470 [label=<l_b_spot &le; 1.511<br/>entropy = 0.91<br/>samples = 43<br/>value = [14, 29]<br/>class = Low>, fillcolor="#99ccf2"] ;
469 -> 470 ;
471 [label=<AirTemp &le; 8.05<br/>entropy = 0.516<br/>samples = 26<br/>value = [3, 23]<br/>class = Low>, fillcolor="#53aae8"] ;
470 -> 471 ;
472 [label=<entropy = 0.845<br/>samples = 11<br/>value = [3, 8]<br/>class = Low>, fillcolor="#83c2ef"] ;
471 -> 472 ;
473 [label=<entropy = 0.0<br/>samples = 15<br/>value = [0, 15]<br/>class = Low>, fillcolor="#399de5"] ;
471 -> 473 ;
474 [label=<AirTemp &le; 7.65<br/>entropy = 0.937<br/>samples = 17<br/>value = [11, 6]<br/>class = High>, fillcolor="#f3c6a5"] ;
470 -> 474 ;
475 [label=<entropy = 0.0<br/>samples = 3<br/>value = [3, 0]<br/>class = High>, fillcolor="#e58139"] ;
474 -> 475 ;
476 [label=<entropy = 0.985<br/>samples = 14<br/>value = [8, 6]<br/>class = High>, fillcolor="#f8e0ce"] ;
474 -> 476 ;
477 [label=<l_b_spot &le; 1.656<br/>entropy = 0.647<br/>samples = 296<br/>value = [49, 247]<br/>class = Low>, fillcolor="#60b0ea"] ;
469 -> 477 ;
478 [label=<l_b_spot &le; 1.651<br/>entropy = 0.567<br/>samples = 217<br/>value = [29, 188]<br/>class = Low>, fillcolor="#58ace9"] ;
477 -> 478 ;
479 [label=<entropy = 0.597<br/>samples = 200<br/>value = [29, 171]<br/>class = Low>, fillcolor="#5baee9"] ;
478 -> 479 ;
480 [label=<entropy = 0.0<br/>samples = 17<br/>value = [0, 17]<br/>class = Low>, fillcolor="#399de5"] ;
478 -> 480 ;
481 [label=<l_b_spot &le; 1.657<br/>entropy = 0.816<br/>samples = 79<br/>value = [20, 59]<br/>class = Low>, fillcolor="#7cbeee"] ;
477 -> 481 ;
482 [label=<entropy = 0.0<br/>samples = 1<br/>value = [1, 0]<br/>class = High>, fillcolor="#e58139"] ;
481 -> 482 ;
483 [label=<entropy = 0.801<br/>samples = 78<br/>value = [19, 59]<br/>class = Low>, fillcolor="#79bded"] ;
481 -> 483 ;
484 [label=<entropy = 0.0<br/>samples = 2<br/>value = [2, 0]<br/>class = High>, fillcolor="#e58139"] ;
466 -> 484 ;
485 [label=<l_b_spot &le; 1.961<br/>entropy = 0.481<br/>samples = 1589<br/>value = [165, 1424]<br/>class = Low>, fillcolor="#50a8e8"] ;
465 -> 485 ;
486 [label=<l_b_spot &le; 1.701<br/>entropy = 0.418<br/>samples = 1241<br/>value = [105, 1136]<br/>class = Low>, fillcolor="#4ba6e7"] ;
485 -> 486 ;
487 [label=<entropy = 0.0<br/>samples = 30<br/>value = [0, 30]<br/>class = Low>, fillcolor="#399de5"] ;
486 -> 487 ;
488 [label=<l_b_spot &le; 1.728<br/>entropy = 0.425<br/>samples = 1211<br/>value = [105, 1106]<br/>class = Low>, fillcolor="#4ca6e7"] ;
486 -> 488 ;
489 [label=<l_b_spot &le; 1.721<br/>entropy = 0.621<br/>samples = 97<br/>value = [15, 82]<br/>class = Low>, fillcolor="#5dafea"] ;
488 -> 489 ;
490 [label=<l_b_spot &le; 1.701<br/>entropy = 0.414<br/>samples = 72<br/>value = [6, 66]<br/>class = Low>, fillcolor="#4ba6e7"] ;
489 -> 490 ;
491 [label=<entropy = 0.0<br/>samples = 1<br/>value = [1, 0]<br/>class = High>, fillcolor="#e58139"] ;
490 -> 491 ;
492 [label=<entropy = 0.367<br/>samples = 71<br/>value = [5, 66]<br/>class = Low>, fillcolor="#48a4e7"] ;
490 -> 492 ;
493 [label=<AirTemp &le; 9.1<br/>entropy = 0.943<br/>samples = 25<br/>value = [9, 16]<br/>class = Low>, fillcolor="#a8d4f4"] ;
489 -> 493 ;
494 [label=<entropy = 0.985<br/>samples = 21<br/>value = [9, 12]<br/>class = Low>, fillcolor="#cee6f8"] ;
493 -> 494 ;
495 [label=<entropy = 0.0<br/>samples = 4<br/>value = [0, 4]<br/>class = Low>, fillcolor="#399de5"] ;
493 -> 495 ;
496 [label=<l_b_spot &le; 1.895<br/>entropy = 0.405<br/>samples = 1114<br/>value = [90, 1024]<br/>class = Low>, fillcolor="#4aa6e7"] ;
488 -> 496 ;
497 [label=<l_b_spot &le; 1.891<br/>entropy = 0.34<br/>samples = 696<br/>value = [44, 652]<br/>class = Low>, fillcolor="#46a4e7"] ;
496 -> 497 ;
498 [label=<entropy = 0.351<br/>samples = 666<br/>value = [44, 622]<br/>class = Low>, fillcolor="#47a4e7"] ;
497 -> 498 ;
499 [label=<entropy = 0.0<br/>samples = 30<br/>value = [0, 30]<br/>class = Low>, fillcolor="#399de5"] ;
497 -> 499 ;
500 [label=<l_b_spot &le; 1.895<br/>entropy = 0.5<br/>samples = 418<br/>value = [46, 372]<br/>class = Low>, fillcolor="#51a9e8"] ;
496 -> 500 ;
501 [label=<entropy = 0.0<br/>samples = 1<br/>value = [1, 0]<br/>class = High>, fillcolor="#e58139"] ;
500 -> 501 ;
502 [label=<entropy = 0.494<br/>samples = 417<br/>value = [45, 372]<br/>class = Low>, fillcolor="#51a9e8"] ;
500 -> 502 ;
503 [label=<AirTemp &le; 8.35<br/>entropy = 0.663<br/>samples = 348<br/>value = [60, 288]<br/>class = Low>, fillcolor="#62b1ea"] ;
485 -> 503 ;
504 [label=<l_b_spot &le; 1.962<br/>entropy = 0.764<br/>samples = 189<br/>value = [42, 147]<br/>class = Low>, fillcolor="#72b9ec"] ;
503 -> 504 ;
505 [label=<entropy = 0.0<br/>samples = 2<br/>value = [2, 0]<br/>class = High>, fillcolor="#e58139"] ;
504 -> 505 ;
506 [label=<l_b_spot &le; 1.978<br/>entropy = 0.749<br/>samples = 187<br/>value = [40, 147]<br/>class = Low>, fillcolor="#6fb8ec"] ;
504 -> 506 ;
507 [label=<AirTemp &le; 7.35<br/>entropy = 0.928<br/>samples = 35<br/>value = [12, 23]<br/>class = Low>, fillcolor="#a0d0f3"] ;
506 -> 507 ;
508 [label=<entropy = 0.0<br/>samples = 3<br/>value = [3, 0]<br/>class = High>, fillcolor="#e58139"] ;
507 -> 508 ;
509 [label=<entropy = 0.857<br/>samples = 32<br/>value = [9, 23]<br/>class = Low>, fillcolor="#86c3ef"] ;
507 -> 509 ;
510 [label=<l_b_spot &le; 1.983<br/>entropy = 0.689<br/>samples = 152<br/>value = [28, 124]<br/>class = Low>, fillcolor="#66b3eb"] ;
506 -> 510 ;
511 [label=<entropy = 0.0<br/>samples = 12<br/>value = [0, 12]<br/>class = Low>, fillcolor="#399de5"] ;
510 -> 511 ;
512 [label=<entropy = 0.722<br/>samples = 140<br/>value = [28, 112]<br/>class = Low>, fillcolor="#6ab6ec"] ;
510 -> 512 ;
513 [label=<l_b_spot &le; 1.964<br/>entropy = 0.51<br/>samples = 159<br/>value = [18, 141]<br/>class = Low>, fillcolor="#52aae8"] ;
503 -> 513 ;
514 [label=<l_b_spot &le; 1.963<br/>entropy = 1.0<br/>samples = 2<br/>value = [1, 1]<br/>class = High>, fillcolor="#ffffff"] ;
513 -> 514 ;
515 [label=<entropy = 0.0<br/>samples = 1<br/>value = [0, 1]<br/>class = Low>, fillcolor="#399de5"] ;
514 -> 515 ;
516 [label=<entropy = 0.0<br/>samples = 1<br/>value = [1, 0]<br/>class = High>, fillcolor="#e58139"] ;
514 -> 516 ;
517 [label=<l_b_spot &le; 2.066<br/>entropy = 0.495<br/>samples = 157<br/>value = [17, 140]<br/>class = Low>, fillcolor="#51a9e8"] ;
513 -> 517 ;
518 [label=<l_b_spot &le; 2.039<br/>entropy = 0.442<br/>samples = 131<br/>value = [12, 119]<br/>class = Low>, fillcolor="#4da7e8"] ;
517 -> 518 ;
519 [label=<entropy = 0.51<br/>samples = 106<br/>value = [12, 94]<br/>class = Low>, fillcolor="#52aae8"] ;
518 -> 519 ;
520 [label=<entropy = 0.0<br/>samples = 25<br/>value = [0, 25]<br/>class = Low>, fillcolor="#399de5"] ;
518 -> 520 ;
521 [label=<l_b_spot &le; 2.067<br/>entropy = 0.706<br/>samples = 26<br/>value = [5, 21]<br/>class = Low>, fillcolor="#68b4eb"] ;
517 -> 521 ;
522 [label=<entropy = 0.0<br/>samples = 1<br/>value = [1, 0]<br/>class = High>, fillcolor="#e58139"] ;
521 -> 522 ;
523 [label=<entropy = 0.634<br/>samples = 25<br/>value = [4, 21]<br/>class = Low>, fillcolor="#5fb0ea"] ;
521 -> 523 ;
524 [label=<AirTemp &le; 9.95<br/>entropy = 0.313<br/>samples = 728<br/>value = [41, 687]<br/>class = Low>, fillcolor="#45a3e7"] ;
464 -> 524 ;
525 [label=<l_b_spot &le; 1.561<br/>entropy = 0.385<br/>samples = 359<br/>value = [27, 332]<br/>class = Low>, fillcolor="#49a5e7"] ;
524 -> 525 ;
526 [label=<l_b_spot &le; 1.515<br/>entropy = 0.89<br/>samples = 13<br/>value = [4, 9]<br/>class = Low>, fillcolor="#91c9f1"] ;
525 -> 526 ;
527 [label=<entropy = 0.0<br/>samples = 4<br/>value = [0, 4]<br/>class = Low>, fillcolor="#399de5"] ;
526 -> 527 ;
528 [label=<l_b_spot &le; 1.529<br/>entropy = 0.991<br/>samples = 9<br/>value = [4, 5]<br/>class = Low>, fillcolor="#d7ebfa"] ;
526 -> 528 ;
529 [label=<l_b_spot &le; 1.526<br/>entropy = 0.811<br/>samples = 4<br/>value = [3, 1]<br/>class = High>, fillcolor="#eeab7b"] ;
528 -> 529 ;
530 [label=<l_b_spot &le; 1.521<br/>entropy = 1.0<br/>samples = 2<br/>value = [1, 1]<br/>class = High>, fillcolor="#ffffff"] ;
529 -> 530 ;
531 [label=<entropy = 0.0<br/>samples = 1<br/>value = [1, 0]<br/>class = High>, fillcolor="#e58139"] ;
530 -> 531 ;
532 [label=<entropy = 0.0<br/>samples = 1<br/>value = [0, 1]<br/>class = Low>, fillcolor="#399de5"] ;
530 -> 532 ;
533 [label=<entropy = 0.0<br/>samples = 2<br/>value = [2, 0]<br/>class = High>, fillcolor="#e58139"] ;
529 -> 533 ;
534 [label=<l_b_spot &le; 1.552<br/>entropy = 0.722<br/>samples = 5<br/>value = [1, 4]<br/>class = Low>, fillcolor="#6ab6ec"] ;
528 -> 534 ;
535 [label=<entropy = 0.0<br/>samples = 4<br/>value = [0, 4]<br/>class = Low>, fillcolor="#399de5"] ;
534 -> 535 ;
536 [label=<entropy = 0.0<br/>samples = 1<br/>value = [1, 0]<br/>class = High>, fillcolor="#e58139"] ;
534 -> 536 ;
537 [label=<l_b_spot &le; 1.728<br/>entropy = 0.353<br/>samples = 346<br/>value = [23, 323]<br/>class = Low>, fillcolor="#47a4e7"] ;
525 -> 537 ;
538 [label=<l_b_spot &le; 1.601<br/>entropy = 0.115<br/>samples = 65<br/>value = [1, 64]<br/>class = Low>, fillcolor="#3c9fe5"] ;
537 -> 538 ;
539 [label=<l_b_spot &le; 1.596<br/>entropy = 0.544<br/>samples = 8<br/>value = [1, 7]<br/>class = Low>, fillcolor="#55abe9"] ;
538 -> 539 ;
540 [label=<entropy = 0.0<br/>samples = 7<br/>value = [0, 7]<br/>class = Low>, fillcolor="#399de5"] ;
539 -> 540 ;
541 [label=<entropy = 0.0<br/>samples = 1<br/>value = [1, 0]<br/>class = High>, fillcolor="#e58139"] ;
539 -> 541 ;
542 [label=<entropy = 0.0<br/>samples = 57<br/>value = [0, 57]<br/>class = Low>, fillcolor="#399de5"] ;
538 -> 542 ;
543 [label=<l_b_spot &le; 1.735<br/>entropy = 0.396<br/>samples = 281<br/>value = [22, 259]<br/>class = Low>, fillcolor="#4aa5e7"] ;
537 -> 543 ;
544 [label=<AirTemp &le; 9.65<br/>entropy = 1.0<br/>samples = 8<br/>value = [4, 4]<br/>class = High>, fillcolor="#ffffff"] ;
543 -> 544 ;
545 [label=<entropy = 0.0<br/>samples = 1<br/>value = [1, 0]<br/>class = High>, fillcolor="#e58139"] ;
544 -> 545 ;
546 [label=<l_b_spot &le; 1.729<br/>entropy = 0.985<br/>samples = 7<br/>value = [3, 4]<br/>class = Low>, fillcolor="#cee6f8"] ;
544 -> 546 ;
547 [label=<entropy = 0.0<br/>samples = 1<br/>value = [1, 0]<br/>class = High>, fillcolor="#e58139"] ;
546 -> 547 ;
548 [label=<entropy = 0.918<br/>samples = 6<br/>value = [2, 4]<br/>class = Low>, fillcolor="#9ccef2"] ;
546 -> 548 ;
549 [label=<l_b_spot &le; 1.868<br/>entropy = 0.351<br/>samples = 273<br/>value = [18, 255]<br/>class = Low>, fillcolor="#47a4e7"] ;
543 -> 549 ;
550 [label=<l_b_spot &le; 1.791<br/>entropy = 0.182<br/>samples = 109<br/>value = [3, 106]<br/>class = Low>, fillcolor="#3fa0e6"] ;
549 -> 550 ;
551 [label=<entropy = 0.469<br/>samples = 30<br/>value = [3, 27]<br/>class = Low>, fillcolor="#4fa8e8"] ;
550 -> 551 ;
552 [label=<entropy = 0.0<br/>samples = 79<br/>value = [0, 79]<br/>class = Low>, fillcolor="#399de5"] ;
550 -> 552 ;
553 [label=<l_b_spot &le; 1.869<br/>entropy = 0.441<br/>samples = 164<br/>value = [15, 149]<br/>class = Low>, fillcolor="#4da7e8"] ;
549 -> 553 ;
554 [label=<entropy = 0.0<br/>samples = 2<br/>value = [2, 0]<br/>class = High>, fillcolor="#e58139"] ;
553 -> 554 ;
555 [label=<entropy = 0.403<br/>samples = 162<br/>value = [13, 149]<br/>class = Low>, fillcolor="#4aa6e7"] ;
553 -> 555 ;
556 [label=<l_b_spot &le; 1.971<br/>entropy = 0.233<br/>samples = 369<br/>value = [14, 355]<br/>class = Low>, fillcolor="#41a1e6"] ;
524 -> 556 ;
557 [label=<l_b_spot &le; 1.968<br/>entropy = 0.264<br/>samples = 312<br/>value = [14, 298]<br/>class = Low>, fillcolor="#42a2e6"] ;
556 -> 557 ;
558 [label=<l_b_spot &le; 1.654<br/>entropy = 0.25<br/>samples = 311<br/>value = [13, 298]<br/>class = Low>, fillcolor="#42a1e6"] ;
557 -> 558 ;
559 [label=<entropy = 0.0<br/>samples = 38<br/>value = [0, 38]<br/>class = Low>, fillcolor="#399de5"] ;
558 -> 559 ;
560 [label=<l_b_spot &le; 1.654<br/>entropy = 0.276<br/>samples = 273<br/>value = [13, 260]<br/>class = Low>, fillcolor="#43a2e6"] ;
558 -> 560 ;
561 [label=<entropy = 0.0<br/>samples = 1<br/>value = [1, 0]<br/>class = High>, fillcolor="#e58139"] ;
560 -> 561 ;
562 [label=<l_b_spot &le; 1.921<br/>entropy = 0.261<br/>samples = 272<br/>value = [12, 260]<br/>class = Low>, fillcolor="#42a2e6"] ;
560 -> 562 ;
563 [label=<entropy = 0.286<br/>samples = 240<br/>value = [12, 228]<br/>class = Low>, fillcolor="#43a2e6"] ;
562 -> 563 ;
564 [label=<entropy = 0.0<br/>samples = 32<br/>value = [0, 32]<br/>class = Low>, fillcolor="#399de5"] ;
562 -> 564 ;
565 [label=<entropy = 0.0<br/>samples = 1<br/>value = [1, 0]<br/>class = High>, fillcolor="#e58139"] ;
557 -> 565 ;
566 [label=<entropy = 0.0<br/>samples = 57<br/>value = [0, 57]<br/>class = Low>, fillcolor="#399de5"] ;
556 -> 566 ;
567 [label=<l_b_spot &le; 2.309<br/>entropy = 1.0<br/>samples = 432<br/>value = [219, 213]<br/>class = High>, fillcolor="#fefcfa"] ;
463 -> 567 ;
568 [label=<l_b_spot &le; 2.299<br/>entropy = 0.962<br/>samples = 202<br/>value = [78, 124]<br/>class = Low>, fillcolor="#b6dbf5"] ;
567 -> 568 ;
569 [label=<l_b_spot &le; 2.297<br/>entropy = 0.97<br/>samples = 196<br/>value = [78, 118]<br/>class = Low>, fillcolor="#bcdef6"] ;
568 -> 569 ;
570 [label=<l_b_spot &le; 2.287<br/>entropy = 0.964<br/>samples = 193<br/>value = [75, 118]<br/>class = Low>, fillcolor="#b7dbf6"] ;
569 -> 570 ;
571 [label=<l_b_spot &le; 2.286<br/>entropy = 0.974<br/>samples = 185<br/>value = [75, 110]<br/>class = Low>, fillcolor="#c0e0f7"] ;
570 -> 571 ;
572 [label=<l_b_spot &le; 2.27<br/>entropy = 0.966<br/>samples = 181<br/>value = [71, 110]<br/>class = Low>, fillcolor="#b9dcf6"] ;
571 -> 572 ;
573 [label=<AirTemp &le; 10.35<br/>entropy = 0.979<br/>samples = 171<br/>value = [71, 100]<br/>class = Low>, fillcolor="#c6e3f7"] ;
572 -> 573 ;
574 [label=<entropy = 0.984<br/>samples = 167<br/>value = [71, 96]<br/>class = Low>, fillcolor="#cbe5f8"] ;
573 -> 574 ;
575 [label=<entropy = 0.0<br/>samples = 4<br/>value = [0, 4]<br/>class = Low>, fillcolor="#399de5"] ;
573 -> 575 ;
576 [label=<entropy = 0.0<br/>samples = 10<br/>value = [0, 10]<br/>class = Low>, fillcolor="#399de5"] ;
572 -> 576 ;
577 [label=<entropy = 0.0<br/>samples = 4<br/>value = [4, 0]<br/>class = High>, fillcolor="#e58139"] ;
571 -> 577 ;
578 [label=<entropy = 0.0<br/>samples = 8<br/>value = [0, 8]<br/>class = Low>, fillcolor="#399de5"] ;
570 -> 578 ;
579 [label=<entropy = 0.0<br/>samples = 3<br/>value = [3, 0]<br/>class = High>, fillcolor="#e58139"] ;
569 -> 579 ;
580 [label=<entropy = 0.0<br/>samples = 6<br/>value = [0, 6]<br/>class = Low>, fillcolor="#399de5"] ;
568 -> 580 ;
581 [label=<l_b_spot &le; 2.645<br/>entropy = 0.963<br/>samples = 230<br/>value = [141, 89]<br/>class = High>, fillcolor="#f5d1b6"] ;
567 -> 581 ;
582 [label=<AirTemp &le; 8.05<br/>entropy = 0.979<br/>samples = 210<br/>value = [123, 87]<br/>class = High>, fillcolor="#f7dac5"] ;
581 -> 582 ;
583 [label=<l_b_spot &le; 2.641<br/>entropy = 0.877<br/>samples = 54<br/>value = [38, 16]<br/>class = High>, fillcolor="#f0b68c"] ;
582 -> 583 ;
584 [label=<l_b_spot &le; 2.584<br/>entropy = 0.86<br/>samples = 53<br/>value = [38, 15]<br/>class = High>, fillcolor="#efb387"] ;
583 -> 584 ;
585 [label=<l_b_spot &le; 2.577<br/>entropy = 0.889<br/>samples = 49<br/>value = [34, 15]<br/>class = High>, fillcolor="#f0b990"] ;
584 -> 585 ;
586 [label=<l_b_spot &le; 2.362<br/>entropy = 0.851<br/>samples = 47<br/>value = [34, 13]<br/>class = High>, fillcolor="#efb185"] ;
585 -> 586 ;
587 [label=<entropy = 0.0<br/>samples = 3<br/>value = [3, 0]<br/>class = High>, fillcolor="#e58139"] ;
586 -> 587 ;
588 [label=<entropy = 0.876<br/>samples = 44<br/>value = [31, 13]<br/>class = High>, fillcolor="#f0b68c"] ;
586 -> 588 ;
589 [label=<entropy = 0.0<br/>samples = 2<br/>value = [0, 2]<br/>class = Low>, fillcolor="#399de5"] ;
585 -> 589 ;
590 [label=<entropy = 0.0<br/>samples = 4<br/>value = [4, 0]<br/>class = High>, fillcolor="#e58139"] ;
584 -> 590 ;
591 [label=<entropy = 0.0<br/>samples = 1<br/>value = [0, 1]<br/>class = Low>, fillcolor="#399de5"] ;
583 -> 591 ;
592 [label=<l_b_spot &le; 2.318<br/>entropy = 0.994<br/>samples = 156<br/>value = [85, 71]<br/>class = High>, fillcolor="#fbeade"] ;
582 -> 592 ;
593 [label=<entropy = 0.0<br/>samples = 3<br/>value = [3, 0]<br/>class = High>, fillcolor="#e58139"] ;
592 -> 593 ;
594 [label=<AirTemp &le; 8.15<br/>entropy = 0.996<br/>samples = 153<br/>value = [82, 71]<br/>class = High>, fillcolor="#fceee4"] ;
592 -> 594 ;
595 [label=<l_b_spot &le; 2.358<br/>entropy = 0.863<br/>samples = 7<br/>value = [2, 5]<br/>class = Low>, fillcolor="#88c4ef"] ;
594 -> 595 ;
596 [label=<entropy = 0.0<br/>samples = 1<br/>value = [1, 0]<br/>class = High>, fillcolor="#e58139"] ;
595 -> 596 ;
597 [label=<l_b_spot &le; 2.567<br/>entropy = 0.65<br/>samples = 6<br/>value = [1, 5]<br/>class = Low>, fillcolor="#61b1ea"] ;
595 -> 597 ;
598 [label=<entropy = 0.0<br/>samples = 4<br/>value = [0, 4]<br/>class = Low>, fillcolor="#399de5"] ;
597 -> 598 ;
599 [label=<entropy = 1.0<br/>samples = 2<br/>value = [1, 1]<br/>class = High>, fillcolor="#ffffff"] ;
597 -> 599 ;
600 [label=<l_b_spot &le; 2.589<br/>entropy = 0.993<br/>samples = 146<br/>value = [80, 66]<br/>class = High>, fillcolor="#fae9dc"] ;
594 -> 600 ;
601 [label=<l_b_spot &le; 2.578<br/>entropy = 0.997<br/>samples = 135<br/>value = [72, 63]<br/>class = High>, fillcolor="#fcefe6"] ;
600 -> 601 ;
602 [label=<entropy = 0.995<br/>samples = 133<br/>value = [72, 61]<br/>class = High>, fillcolor="#fbece1"] ;
601 -> 602 ;
603 [label=<entropy = 0.0<br/>samples = 2<br/>value = [0, 2]<br/>class = Low>, fillcolor="#399de5"] ;
601 -> 603 ;
604 [label=<AirTemp &le; 8.45<br/>entropy = 0.845<br/>samples = 11<br/>value = [8, 3]<br/>class = High>, fillcolor="#efb083"] ;
600 -> 604 ;
605 [label=<entropy = 0.811<br/>samples = 4<br/>value = [1, 3]<br/>class = Low>, fillcolor="#7bbeee"] ;
604 -> 605 ;
606 [label=<entropy = 0.0<br/>samples = 7<br/>value = [7, 0]<br/>class = High>, fillcolor="#e58139"] ;
604 -> 606 ;
607 [label=<AirTemp &le; 10.1<br/>entropy = 0.469<br/>samples = 20<br/>value = [18, 2]<br/>class = High>, fillcolor="#e88f4f"] ;
581 -> 607 ;
608 [label=<l_b_spot &le; 2.668<br/>entropy = 0.297<br/>samples = 19<br/>value = [18, 1]<br/>class = High>, fillcolor="#e68844"] ;
607 -> 608 ;
609 [label=<l_b_spot &le; 2.665<br/>entropy = 0.592<br/>samples = 7<br/>value = [6, 1]<br/>class = High>, fillcolor="#e9965a"] ;
608 -> 609 ;
610 [label=<entropy = 0.0<br/>samples = 6<br/>value = [6, 0]<br/>class = High>, fillcolor="#e58139"] ;
609 -> 610 ;
611 [label=<entropy = 0.0<br/>samples = 1<br/>value = [0, 1]<br/>class = Low>, fillcolor="#399de5"] ;
609 -> 611 ;
612 [label=<entropy = 0.0<br/>samples = 12<br/>value = [12, 0]<br/>class = High>, fillcolor="#e58139"] ;
608 -> 612 ;
613 [label=<entropy = 0.0<br/>samples = 1<br/>value = [0, 1]<br/>class = Low>, fillcolor="#399de5"] ;
607 -> 613 ;
614 [label=<AirTemp &le; 12.55<br/>entropy = 0.084<br/>samples = 8148<br/>value = [86, 8062]<br/>class = Low>, fillcolor="#3b9ee5"] ;
462 -> 614 ;
615 [label=<l_b_spot &le; 2.285<br/>entropy = 0.238<br/>samples = 1917<br/>value = [75, 1842]<br/>class = Low>, fillcolor="#41a1e6"] ;
614 -> 615 ;
616 [label=<l_b_spot &le; 1.997<br/>entropy = 0.167<br/>samples = 1816<br/>value = [45, 1771]<br/>class = Low>, fillcolor="#3e9fe6"] ;
615 -> 616 ;
617 [label=<l_b_spot &le; 1.54<br/>entropy = 0.14<br/>samples = 1569<br/>value = [31, 1538]<br/>class = Low>, fillcolor="#3d9fe6"] ;
616 -> 617 ;
618 [label=<l_b_spot &le; 1.517<br/>entropy = 0.391<br/>samples = 65<br/>value = [5, 60]<br/>class = Low>, fillcolor="#49a5e7"] ;
617 -> 618 ;
619 [label=<entropy = 0.0<br/>samples = 36<br/>value = [0, 36]<br/>class = Low>, fillcolor="#399de5"] ;
618 -> 619 ;
620 [label=<AirTemp &le; 12.0<br/>entropy = 0.663<br/>samples = 29<br/>value = [5, 24]<br/>class = Low>, fillcolor="#62b1ea"] ;
618 -> 620 ;
621 [label=<AirTemp &le; 11.85<br/>entropy = 0.831<br/>samples = 19<br/>value = [5, 14]<br/>class = Low>, fillcolor="#80c0ee"] ;
620 -> 621 ;
622 [label=<l_b_spot &le; 1.521<br/>entropy = 0.764<br/>samples = 18<br/>value = [4, 14]<br/>class = Low>, fillcolor="#72b9ec"] ;
621 -> 622 ;
623 [label=<entropy = 0.0<br/>samples = 3<br/>value = [0, 3]<br/>class = Low>, fillcolor="#399de5"] ;
622 -> 623 ;
624 [label=<entropy = 0.837<br/>samples = 15<br/>value = [4, 11]<br/>class = Low>, fillcolor="#81c1ee"] ;
622 -> 624 ;
625 [label=<entropy = 0.0<br/>samples = 1<br/>value = [1, 0]<br/>class = High>, fillcolor="#e58139"] ;
621 -> 625 ;
626 [label=<entropy = 0.0<br/>samples = 10<br/>value = [0, 10]<br/>class = Low>, fillcolor="#399de5"] ;
620 -> 626 ;
627 [label=<l_b_spot &le; 1.87<br/>entropy = 0.126<br/>samples = 1504<br/>value = [26, 1478]<br/>class = Low>, fillcolor="#3c9fe5"] ;
617 -> 627 ;
628 [label=<AirTemp &le; 10.85<br/>entropy = 0.093<br/>samples = 1014<br/>value = [12, 1002]<br/>class = Low>, fillcolor="#3b9ee5"] ;
627 -> 628 ;
629 [label=<entropy = 0.0<br/>samples = 214<br/>value = [0, 214]<br/>class = Low>, fillcolor="#399de5"] ;
628 -> 629 ;
630 [label=<l_b_spot &le; 1.772<br/>entropy = 0.112<br/>samples = 800<br/>value = [12, 788]<br/>class = Low>, fillcolor="#3c9ee5"] ;
628 -> 630 ;
631 [label=<l_b_spot &le; 1.772<br/>entropy = 0.159<br/>samples = 389<br/>value = [9, 380]<br/>class = Low>, fillcolor="#3e9fe6"] ;
630 -> 631 ;
632 [label=<entropy = 0.145<br/>samples = 388<br/>value = [8, 380]<br/>class = Low>, fillcolor="#3d9fe6"] ;
631 -> 632 ;
633 [label=<entropy = 0.0<br/>samples = 1<br/>value = [1, 0]<br/>class = High>, fillcolor="#e58139"] ;
631 -> 633 ;
634 [label=<AirTemp &le; 11.45<br/>entropy = 0.062<br/>samples = 411<br/>value = [3, 408]<br/>class = Low>, fillcolor="#3a9ee5"] ;
630 -> 634 ;
635 [label=<entropy = 0.14<br/>samples = 152<br/>value = [3, 149]<br/>class = Low>, fillcolor="#3d9fe6"] ;
634 -> 635 ;
636 [label=<entropy = 0.0<br/>samples = 259<br/>value = [0, 259]<br/>class = Low>, fillcolor="#399de5"] ;
634 -> 636 ;
637 [label=<l_b_spot &le; 1.895<br/>entropy = 0.187<br/>samples = 490<br/>value = [14, 476]<br/>class = Low>, fillcolor="#3fa0e6"] ;
627 -> 637 ;
638 [label=<AirTemp &le; 11.15<br/>entropy = 0.36<br/>samples = 146<br/>value = [10, 136]<br/>class = Low>, fillcolor="#48a4e7"] ;
637 -> 638 ;
639 [label=<AirTemp &le; 10.95<br/>entropy = 0.629<br/>samples = 38<br/>value = [6, 32]<br/>class = Low>, fillcolor="#5eafea"] ;
638 -> 639 ;
640 [label=<entropy = 0.258<br/>samples = 23<br/>value = [1, 22]<br/>class = Low>, fillcolor="#42a1e6"] ;
639 -> 640 ;
641 [label=<entropy = 0.918<br/>samples = 15<br/>value = [5, 10]<br/>class = Low>, fillcolor="#9ccef2"] ;
639 -> 641 ;
642 [label=<l_b_spot &le; 1.87<br/>entropy = 0.229<br/>samples = 108<br/>value = [4, 104]<br/>class = Low>, fillcolor="#41a1e6"] ;
638 -> 642 ;
643 [label=<entropy = 0.0<br/>samples = 1<br/>value = [1, 0]<br/>class = High>, fillcolor="#e58139"] ;
642 -> 643 ;
644 [label=<entropy = 0.184<br/>samples = 107<br/>value = [3, 104]<br/>class = Low>, fillcolor="#3fa0e6"] ;
642 -> 644 ;
645 [label=<AirTemp &le; 11.75<br/>entropy = 0.091<br/>samples = 344<br/>value = [4, 340]<br/>class = Low>, fillcolor="#3b9ee5"] ;
637 -> 645 ;
646 [label=<AirTemp &le; 11.55<br/>entropy = 0.15<br/>samples = 186<br/>value = [4, 182]<br/>class = Low>, fillcolor="#3d9fe6"] ;
645 -> 646 ;
647 [label=<entropy = 0.102<br/>samples = 150<br/>value = [2, 148]<br/>class = Low>, fillcolor="#3c9ee5"] ;
646 -> 647 ;
648 [label=<entropy = 0.31<br/>samples = 36<br/>value = [2, 34]<br/>class = Low>, fillcolor="#45a3e7"] ;
646 -> 648 ;
649 [label=<entropy = 0.0<br/>samples = 158<br/>value = [0, 158]<br/>class = Low>, fillcolor="#399de5"] ;
645 -> 649 ;
650 [label=<l_b_spot &le; 2.023<br/>entropy = 0.314<br/>samples = 247<br/>value = [14, 233]<br/>class = Low>, fillcolor="#45a3e7"] ;
616 -> 650 ;
651 [label=<l_b_spot &le; 1.998<br/>entropy = 0.533<br/>samples = 66<br/>value = [8, 58]<br/>class = Low>, fillcolor="#54abe9"] ;
650 -> 651 ;
652 [label=<entropy = 0.0<br/>samples = 1<br/>value = [1, 0]<br/>class = High>, fillcolor="#e58139"] ;
651 -> 652 ;
653 [label=<l_b_spot &le; 2.007<br/>entropy = 0.493<br/>samples = 65<br/>value = [7, 58]<br/>class = Low>, fillcolor="#51a9e8"] ;
651 -> 653 ;
654 [label=<entropy = 0.0<br/>samples = 20<br/>value = [0, 20]<br/>class = Low>, fillcolor="#399de5"] ;
653 -> 654 ;
655 [label=<l_b_spot &le; 2.007<br/>entropy = 0.624<br/>samples = 45<br/>value = [7, 38]<br/>class = Low>, fillcolor="#5dafea"] ;
653 -> 655 ;
656 [label=<entropy = 0.0<br/>samples = 2<br/>value = [2, 0]<br/>class = High>, fillcolor="#e58139"] ;
655 -> 656 ;
657 [label=<l_b_spot &le; 2.023<br/>entropy = 0.519<br/>samples = 43<br/>value = [5, 38]<br/>class = Low>, fillcolor="#53aae8"] ;
655 -> 657 ;
658 [label=<entropy = 0.454<br/>samples = 42<br/>value = [4, 38]<br/>class = Low>, fillcolor="#4ea7e8"] ;
657 -> 658 ;
659 [label=<entropy = 0.0<br/>samples = 1<br/>value = [1, 0]<br/>class = High>, fillcolor="#e58139"] ;
657 -> 659 ;
660 [label=<l_b_spot &le; 2.065<br/>entropy = 0.21<br/>samples = 181<br/>value = [6, 175]<br/>class = Low>, fillcolor="#40a0e6"] ;
650 -> 660 ;
661 [label=<entropy = 0.0<br/>samples = 77<br/>value = [0, 77]<br/>class = Low>, fillcolor="#399de5"] ;
660 -> 661 ;
662 [label=<l_b_spot &le; 2.066<br/>entropy = 0.318<br/>samples = 104<br/>value = [6, 98]<br/>class = Low>, fillcolor="#45a3e7"] ;
660 -> 662 ;
663 [label=<entropy = 0.0<br/>samples = 1<br/>value = [1, 0]<br/>class = High>, fillcolor="#e58139"] ;
662 -> 663 ;
664 [label=<AirTemp &le; 11.25<br/>entropy = 0.28<br/>samples = 103<br/>value = [5, 98]<br/>class = Low>, fillcolor="#43a2e6"] ;
662 -> 664 ;
665 [label=<entropy = 0.0<br/>samples = 39<br/>value = [0, 39]<br/>class = Low>, fillcolor="#399de5"] ;
664 -> 665 ;
666 [label=<AirTemp &le; 11.35<br/>entropy = 0.396<br/>samples = 64<br/>value = [5, 59]<br/>class = Low>, fillcolor="#4aa5e7"] ;
664 -> 666 ;
667 [label=<entropy = 0.971<br/>samples = 5<br/>value = [2, 3]<br/>class = Low>, fillcolor="#bddef6"] ;
666 -> 667 ;
668 [label=<entropy = 0.29<br/>samples = 59<br/>value = [3, 56]<br/>class = Low>, fillcolor="#44a2e6"] ;
666 -> 668 ;
669 [label=<l_b_spot &le; 2.525<br/>entropy = 0.878<br/>samples = 101<br/>value = [30, 71]<br/>class = Low>, fillcolor="#8dc6f0"] ;
615 -> 669 ;
670 [label=<l_b_spot &le; 2.357<br/>entropy = 0.935<br/>samples = 77<br/>value = [27, 50]<br/>class = Low>, fillcolor="#a4d2f3"] ;
669 -> 670 ;
671 [label=<l_b_spot &le; 2.316<br/>entropy = 0.709<br/>samples = 31<br/>value = [6, 25]<br/>class = Low>, fillcolor="#69b5eb"] ;
670 -> 671 ;
672 [label=<l_b_spot &le; 2.311<br/>entropy = 0.9<br/>samples = 19<br/>value = [6, 13]<br/>class = Low>, fillcolor="#94caf1"] ;
671 -> 672 ;
673 [label=<AirTemp &le; 10.85<br/>entropy = 0.787<br/>samples = 17<br/>value = [4, 13]<br/>class = Low>, fillcolor="#76bbed"] ;
672 -> 673 ;
674 [label=<l_b_spot &le; 2.295<br/>entropy = 0.811<br/>samples = 4<br/>value = [3, 1]<br/>class = High>, fillcolor="#eeab7b"] ;
673 -> 674 ;
675 [label=<entropy = 1.0<br/>samples = 2<br/>value = [1, 1]<br/>class = High>, fillcolor="#ffffff"] ;
674 -> 675 ;
676 [label=<entropy = 0.0<br/>samples = 2<br/>value = [2, 0]<br/>class = High>, fillcolor="#e58139"] ;
674 -> 676 ;
677 [label=<l_b_spot &le; 2.302<br/>entropy = 0.391<br/>samples = 13<br/>value = [1, 12]<br/>class = Low>, fillcolor="#49a5e7"] ;
673 -> 677 ;
678 [label=<entropy = 0.0<br/>samples = 7<br/>value = [0, 7]<br/>class = Low>, fillcolor="#399de5"] ;
677 -> 678 ;
679 [label=<entropy = 0.65<br/>samples = 6<br/>value = [1, 5]<br/>class = Low>, fillcolor="#61b1ea"] ;
677 -> 679 ;
680 [label=<entropy = 0.0<br/>samples = 2<br/>value = [2, 0]<br/>class = High>, fillcolor="#e58139"] ;
672 -> 680 ;
681 [label=<entropy = 0.0<br/>samples = 12<br/>value = [0, 12]<br/>class = Low>, fillcolor="#399de5"] ;
671 -> 681 ;
682 [label=<AirTemp &le; 11.35<br/>entropy = 0.995<br/>samples = 46<br/>value = [21, 25]<br/>class = Low>, fillcolor="#dfeffb"] ;
670 -> 682 ;
683 [label=<l_b_spot &le; 2.502<br/>entropy = 0.977<br/>samples = 17<br/>value = [10, 7]<br/>class = High>, fillcolor="#f7d9c4"] ;
682 -> 683 ;
684 [label=<AirTemp &le; 10.95<br/>entropy = 1.0<br/>samples = 14<br/>value = [7, 7]<br/>class = High>, fillcolor="#ffffff"] ;
683 -> 684 ;
685 [label=<l_b_spot &le; 2.406<br/>entropy = 0.863<br/>samples = 7<br/>value = [2, 5]<br/>class = Low>, fillcolor="#88c4ef"] ;
684 -> 685 ;
686 [label=<entropy = 1.0<br/>samples = 4<br/>value = [2, 2]<br/>class = High>, fillcolor="#ffffff"] ;
685 -> 686 ;
687 [label=<entropy = 0.0<br/>samples = 3<br/>value = [0, 3]<br/>class = Low>, fillcolor="#399de5"] ;
685 -> 687 ;
688 [label=<AirTemp &le; 11.1<br/>entropy = 0.863<br/>samples = 7<br/>value = [5, 2]<br/>class = High>, fillcolor="#efb388"] ;
684 -> 688 ;
689 [label=<entropy = 0.0<br/>samples = 2<br/>value = [2, 0]<br/>class = High>, fillcolor="#e58139"] ;
688 -> 689 ;
690 [label=<entropy = 0.971<br/>samples = 5<br/>value = [3, 2]<br/>class = High>, fillcolor="#f6d5bd"] ;
688 -> 690 ;
691 [label=<entropy = 0.0<br/>samples = 3<br/>value = [3, 0]<br/>class = High>, fillcolor="#e58139"] ;
683 -> 691 ;
692 [label=<l_b_spot &le; 2.44<br/>entropy = 0.958<br/>samples = 29<br/>value = [11, 18]<br/>class = Low>, fillcolor="#b2d9f5"] ;
682 -> 692 ;
693 [label=<l_b_spot &le; 2.426<br/>entropy = 0.997<br/>samples = 15<br/>value = [8, 7]<br/>class = High>, fillcolor="#fcefe6"] ;
692 -> 693 ;
694 [label=<AirTemp &le; 11.55<br/>entropy = 0.98<br/>samples = 12<br/>value = [5, 7]<br/>class = Low>, fillcolor="#c6e3f8"] ;
693 -> 694 ;
695 [label=<entropy = 0.0<br/>samples = 3<br/>value = [0, 3]<br/>class = Low>, fillcolor="#399de5"] ;
694 -> 695 ;
696 [label=<entropy = 0.991<br/>samples = 9<br/>value = [5, 4]<br/>class = High>, fillcolor="#fae6d7"] ;
694 -> 696 ;
697 [label=<entropy = 0.0<br/>samples = 3<br/>value = [3, 0]<br/>class = High>, fillcolor="#e58139"] ;
693 -> 697 ;
698 [label=<l_b_spot &le; 2.504<br/>entropy = 0.75<br/>samples = 14<br/>value = [3, 11]<br/>class = Low>, fillcolor="#6fb8ec"] ;
692 -> 698 ;
699 [label=<l_b_spot &le; 2.502<br/>entropy = 0.845<br/>samples = 11<br/>value = [3, 8]<br/>class = Low>, fillcolor="#83c2ef"] ;
698 -> 699 ;
700 [label=<entropy = 0.722<br/>samples = 10<br/>value = [2, 8]<br/>class = Low>, fillcolor="#6ab6ec"] ;
699 -> 700 ;
701 [label=<entropy = 0.0<br/>samples = 1<br/>value = [1, 0]<br/>class = High>, fillcolor="#e58139"] ;
699 -> 701 ;
702 [label=<entropy = 0.0<br/>samples = 3<br/>value = [0, 3]<br/>class = Low>, fillcolor="#399de5"] ;
698 -> 702 ;
703 [label=<l_b_spot &le; 2.693<br/>entropy = 0.544<br/>samples = 24<br/>value = [3, 21]<br/>class = Low>, fillcolor="#55abe9"] ;
669 -> 703 ;
704 [label=<AirTemp &le; 11.1<br/>entropy = 0.276<br/>samples = 21<br/>value = [1, 20]<br/>class = Low>, fillcolor="#43a2e6"] ;
703 -> 704 ;
705 [label=<l_b_spot &le; 2.568<br/>entropy = 0.811<br/>samples = 4<br/>value = [1, 3]<br/>class = Low>, fillcolor="#7bbeee"] ;
704 -> 705 ;
706 [label=<entropy = 0.0<br/>samples = 1<br/>value = [1, 0]<br/>class = High>, fillcolor="#e58139"] ;
705 -> 706 ;
707 [label=<entropy = 0.0<br/>samples = 3<br/>value = [0, 3]<br/>class = Low>, fillcolor="#399de5"] ;
705 -> 707 ;
708 [label=<entropy = 0.0<br/>samples = 17<br/>value = [0, 17]<br/>class = Low>, fillcolor="#399de5"] ;
704 -> 708 ;
709 [label=<AirTemp &le; 11.1<br/>entropy = 0.918<br/>samples = 3<br/>value = [2, 1]<br/>class = High>, fillcolor="#f2c09c"] ;
703 -> 709 ;
710 [label=<entropy = 0.0<br/>samples = 1<br/>value = [0, 1]<br/>class = Low>, fillcolor="#399de5"] ;
709 -> 710 ;
711 [label=<entropy = 0.0<br/>samples = 2<br/>value = [2, 0]<br/>class = High>, fillcolor="#e58139"] ;
709 -> 711 ;
712 [label=<l_b_spot &le; 2.151<br/>entropy = 0.019<br/>samples = 6231<br/>value = [11, 6220]<br/>class = Low>, fillcolor="#399de5"] ;
614 -> 712 ;
713 [label=<l_b_spot &le; 1.684<br/>entropy = 0.01<br/>samples = 5953<br/>value = [5, 5948]<br/>class = Low>, fillcolor="#399de5"] ;
712 -> 713 ;
714 [label=<l_b_spot &le; 1.684<br/>entropy = 0.052<br/>samples = 514<br/>value = [3, 511]<br/>class = Low>, fillcolor="#3a9ee5"] ;
713 -> 714 ;
715 [label=<AirTemp &le; 13.55<br/>entropy = 0.037<br/>samples = 513<br/>value = [2, 511]<br/>class = Low>, fillcolor="#3a9de5"] ;
714 -> 715 ;
716 [label=<l_b_spot &le; 1.629<br/>entropy = 0.143<br/>samples = 99<br/>value = [2, 97]<br/>class = Low>, fillcolor="#3d9fe6"] ;
715 -> 716 ;
717 [label=<entropy = 0.0<br/>samples = 69<br/>value = [0, 69]<br/>class = Low>, fillcolor="#399de5"] ;
716 -> 717 ;
718 [label=<l_b_spot &le; 1.632<br/>entropy = 0.353<br/>samples = 30<br/>value = [2, 28]<br/>class = Low>, fillcolor="#47a4e7"] ;
716 -> 718 ;
719 [label=<entropy = 0.0<br/>samples = 2<br/>value = [2, 0]<br/>class = High>, fillcolor="#e58139"] ;
718 -> 719 ;
720 [label=<entropy = 0.0<br/>samples = 28<br/>value = [0, 28]<br/>class = Low>, fillcolor="#399de5"] ;
718 -> 720 ;
721 [label=<entropy = 0.0<br/>samples = 414<br/>value = [0, 414]<br/>class = Low>, fillcolor="#399de5"] ;
715 -> 721 ;
722 [label=<entropy = 0.0<br/>samples = 1<br/>value = [1, 0]<br/>class = High>, fillcolor="#e58139"] ;
714 -> 722 ;
723 [label=<l_b_spot &le; 2.009<br/>entropy = 0.005<br/>samples = 5439<br/>value = [2, 5437]<br/>class = Low>, fillcolor="#399de5"] ;
713 -> 723 ;
724 [label=<entropy = 0.0<br/>samples = 4746<br/>value = [0, 4746]<br/>class = Low>, fillcolor="#399de5"] ;
723 -> 724 ;
725 [label=<l_b_spot &le; 2.009<br/>entropy = 0.029<br/>samples = 693<br/>value = [2, 691]<br/>class = Low>, fillcolor="#3a9de5"] ;
723 -> 725 ;
726 [label=<entropy = 0.0<br/>samples = 1<br/>value = [1, 0]<br/>class = High>, fillcolor="#e58139"] ;
725 -> 726 ;
727 [label=<l_b_spot &le; 2.02<br/>entropy = 0.016<br/>samples = 692<br/>value = [1, 691]<br/>class = Low>, fillcolor="#399de5"] ;
725 -> 727 ;
728 [label=<l_b_spot &le; 2.02<br/>entropy = 0.071<br/>samples = 118<br/>value = [1, 117]<br/>class = Low>, fillcolor="#3b9ee5"] ;
727 -> 728 ;
729 [label=<entropy = 0.0<br/>samples = 117<br/>value = [0, 117]<br/>class = Low>, fillcolor="#399de5"] ;
728 -> 729 ;
730 [label=<entropy = 0.0<br/>samples = 1<br/>value = [1, 0]<br/>class = High>, fillcolor="#e58139"] ;
728 -> 730 ;
731 [label=<entropy = 0.0<br/>samples = 574<br/>value = [0, 574]<br/>class = Low>, fillcolor="#399de5"] ;
727 -> 731 ;
732 [label=<AirTemp &le; 13.05<br/>entropy = 0.15<br/>samples = 278<br/>value = [6, 272]<br/>class = Low>, fillcolor="#3d9fe6"] ;
712 -> 732 ;
733 [label=<AirTemp &le; 12.75<br/>entropy = 0.523<br/>samples = 34<br/>value = [4, 30]<br/>class = Low>, fillcolor="#53aae8"] ;
732 -> 733 ;
734 [label=<entropy = 0.0<br/>samples = 14<br/>value = [0, 14]<br/>class = Low>, fillcolor="#399de5"] ;
733 -> 734 ;
735 [label=<l_b_spot &le; 2.155<br/>entropy = 0.722<br/>samples = 20<br/>value = [4, 16]<br/>class = Low>, fillcolor="#6ab6ec"] ;
733 -> 735 ;
736 [label=<entropy = 0.0<br/>samples = 1<br/>value = [1, 0]<br/>class = High>, fillcolor="#e58139"] ;
735 -> 736 ;
737 [label=<l_b_spot &le; 2.603<br/>entropy = 0.629<br/>samples = 19<br/>value = [3, 16]<br/>class = Low>, fillcolor="#5eafea"] ;
735 -> 737 ;
738 [label=<AirTemp &le; 12.85<br/>entropy = 0.503<br/>samples = 18<br/>value = [2, 16]<br/>class = Low>, fillcolor="#52a9e8"] ;
737 -> 738 ;
739 [label=<l_b_spot &le; 2.215<br/>entropy = 0.764<br/>samples = 9<br/>value = [2, 7]<br/>class = Low>, fillcolor="#72b9ec"] ;
738 -> 739 ;
740 [label=<entropy = 1.0<br/>samples = 2<br/>value = [1, 1]<br/>class = High>, fillcolor="#ffffff"] ;
739 -> 740 ;
741 [label=<entropy = 0.592<br/>samples = 7<br/>value = [1, 6]<br/>class = Low>, fillcolor="#5aade9"] ;
739 -> 741 ;
742 [label=<entropy = 0.0<br/>samples = 9<br/>value = [0, 9]<br/>class = Low>, fillcolor="#399de5"] ;
738 -> 742 ;
743 [label=<entropy = 0.0<br/>samples = 1<br/>value = [1, 0]<br/>class = High>, fillcolor="#e58139"] ;
737 -> 743 ;
744 [label=<AirTemp &le; 16.3<br/>entropy = 0.069<br/>samples = 244<br/>value = [2, 242]<br/>class = Low>, fillcolor="#3b9ee5"] ;
732 -> 744 ;
745 [label=<AirTemp &le; 16.15<br/>entropy = 0.129<br/>samples = 112<br/>value = [2, 110]<br/>class = Low>, fillcolor="#3d9fe5"] ;
744 -> 745 ;
746 [label=<AirTemp &le; 13.65<br/>entropy = 0.076<br/>samples = 107<br/>value = [1, 106]<br/>class = Low>, fillcolor="#3b9ee5"] ;
745 -> 746 ;
747 [label=<l_b_spot &le; 2.205<br/>entropy = 0.191<br/>samples = 34<br/>value = [1, 33]<br/>class = Low>, fillcolor="#3fa0e6"] ;
746 -> 747 ;
748 [label=<l_b_spot &le; 2.204<br/>entropy = 0.544<br/>samples = 8<br/>value = [1, 7]<br/>class = Low>, fillcolor="#55abe9"] ;
747 -> 748 ;
749 [label=<entropy = 0.0<br/>samples = 7<br/>value = [0, 7]<br/>class = Low>, fillcolor="#399de5"] ;
748 -> 749 ;
750 [label=<entropy = 0.0<br/>samples = 1<br/>value = [1, 0]<br/>class = High>, fillcolor="#e58139"] ;
748 -> 750 ;
751 [label=<entropy = 0.0<br/>samples = 26<br/>value = [0, 26]<br/>class = Low>, fillcolor="#399de5"] ;
747 -> 751 ;
752 [label=<entropy = 0.0<br/>samples = 73<br/>value = [0, 73]<br/>class = Low>, fillcolor="#399de5"] ;
746 -> 752 ;
753 [label=<l_b_spot &le; 2.244<br/>entropy = 0.722<br/>samples = 5<br/>value = [1, 4]<br/>class = Low>, fillcolor="#6ab6ec"] ;
745 -> 753 ;
754 [label=<entropy = 0.0<br/>samples = 3<br/>value = [0, 3]<br/>class = Low>, fillcolor="#399de5"] ;
753 -> 754 ;
755 [label=<l_b_spot &le; 2.325<br/>entropy = 1.0<br/>samples = 2<br/>value = [1, 1]<br/>class = High>, fillcolor="#ffffff"] ;
753 -> 755 ;
756 [label=<entropy = 0.0<br/>samples = 1<br/>value = [1, 0]<br/>class = High>, fillcolor="#e58139"] ;
755 -> 756 ;
757 [label=<entropy = 0.0<br/>samples = 1<br/>value = [0, 1]<br/>class = Low>, fillcolor="#399de5"] ;
755 -> 757 ;
758 [label=<entropy = 0.0<br/>samples = 132<br/>value = [0, 132]<br/>class = Low>, fillcolor="#399de5"] ;
744 -> 758 ;
}